#ifndef MNIST_WEIGHTS_H
#define MNIST_WEIGHTS_H

// Generated on 2024-12-02 17:24:10
// Author: David Holtz @drbh
// MNIST model weights for digit classification
// Input: 28x28 grayscale image (784 pixels), normalized to [0,1]
// Output: 10 classes (digits 0-9)

#define IMAGE_SIZE (28 * 28)
#define NUM_CLASSES 10

// Model weights (NUM_CLASSES x IMAGE_SIZE)
const float fc1_weights[NUM_CLASSES][IMAGE_SIZE] = {
    {-0.027001f, 0.018786f, -0.017362f, 0.023087f, -0.021811f, 0.022216f, -0.015186f, 0.033426f, 
     0.019721f, -0.003732f, 0.014248f, 0.009499f, -0.046400f, -0.090755f, -0.112135f, -0.079298f, 
     -0.002066f, 0.035409f, -0.028586f, -0.003085f, -0.019043f, 0.033083f, 0.003021f, -0.033849f, 
     -0.014936f, 0.029647f, -0.013557f, 0.033796f, 0.009653f, -0.008568f, 0.019314f, -0.004689f, 
     -0.009760f, -0.027437f, 0.005401f, -0.030740f, -0.030270f, -0.050224f, -0.207577f, 0.176005f, 
     0.228594f, 0.202093f, -0.357830f, 0.184249f, 0.159852f, 0.170484f, -0.176157f, -0.174627f, 
     -0.099265f, -0.026843f, -0.009770f, -0.000746f, -0.027761f, -0.000359f, 0.001060f, -0.033098f, 
     0.010201f, 0.032247f, -0.018121f, 0.206911f, 0.229377f, -0.253356f, -0.319876f, -0.135273f, 
     -0.438150f, -0.574045f, -0.774810f, -0.335976f, -0.320115f, -0.575224f, -0.815692f, -0.919556f, 
     -0.571323f, -0.941607f, -0.905980f, -0.677270f, -0.723732f, -0.498949f, -0.384317f, -0.286923f, 
     -0.192132f, -0.160552f, 0.023789f, -0.025234f, 0.021629f, 0.031917f, -0.033582f, 0.171554f, 
     -0.164824f, -0.233002f, -0.351204f, -0.404452f, -0.074917f, -0.269972f, -0.131420f, -0.058674f, 
     -0.155416f, 0.063019f, 0.015098f, -0.037222f, 0.029410f, -0.053188f, -0.315245f, -0.310498f, 
     -0.293579f, -0.449441f, -0.463079f, -0.312103f, -0.163509f, -0.016600f, -0.180922f, 0.021708f, 
     -0.030963f, -0.029951f, -0.029892f, -0.009693f, -0.375960f, -0.454945f, -0.393801f, -0.106863f, 
     -0.032722f, 0.075358f, -0.048432f, 0.060642f, -0.143564f, 0.036934f, -0.102643f, 0.038280f, 
     -0.073995f, 0.084659f, 0.023801f, -0.082240f, -0.076209f, -0.140843f, -0.041845f, -0.116740f, 
     -0.380304f, -0.353014f, -0.327895f, -0.250128f, -0.015551f, -0.008262f, -0.275664f, -0.156183f, 
     -0.417346f, -0.539070f, -0.121653f, -0.075736f, -0.004083f, -0.034376f, 0.082261f, -0.002085f, 
     -0.075460f, 0.085196f, 0.161312f, 0.084640f, 0.087672f, 0.142392f, 0.161949f, 0.082238f, 
     -0.061210f, -0.001465f, 0.006438f, -0.265577f, -0.415918f, -0.809831f, -0.618530f, -0.247768f, 
     0.030055f, -0.147821f, -0.282629f, -0.358613f, -0.503877f, -0.159703f, -0.031980f, 0.016762f, 
     -0.090319f, -0.264660f, -0.070758f, -0.041891f, -0.078476f, 0.140761f, 0.136451f, 0.025418f, 
     0.103136f, 0.176694f, 0.207241f, 0.118384f, 0.057463f, 0.224594f, 0.231500f, -0.078237f, 
     -0.605717f, -1.205235f, -0.796716f, -0.265370f, 0.025720f, -0.256185f, -0.232099f, -0.229892f, 
     -0.637618f, -0.040868f, 0.032073f, -0.108315f, -0.239766f, -0.050537f, 0.047360f, 0.038249f, 
     0.005305f, 0.106226f, 0.063066f, 0.035053f, 0.121833f, 0.216165f, 0.223629f, 0.138545f, 
     0.053858f, 0.015599f, 0.071793f, 0.184101f, -0.163761f, -0.941852f, -0.836597f, -0.275813f, 
     0.204664f, -0.288192f, 0.088881f, 0.079428f, -0.543378f, -0.115843f, -0.039504f, -0.126900f, 
     -0.101317f, 0.059584f, -0.001630f, 0.015150f, 0.065499f, 0.031375f, 0.123680f, 0.183288f, 
     0.360071f, 0.246905f, 0.212167f, 0.092367f, 0.124079f, 0.063204f, 0.119934f, 0.248324f, 
     0.023339f, -1.175029f, -1.015379f, -0.356239f, -0.032845f, -0.168371f, 0.193118f, 0.079010f, 
     -0.208303f, -0.082118f, -0.172538f, -0.135813f, -0.100673f, 0.028129f, 0.036114f, -0.076016f, 
     0.004530f, 0.180247f, 0.072133f, -0.058806f, 0.164400f, 0.274129f, 0.264222f, 0.218121f, 
     0.154100f, -0.035129f, -0.051707f, 0.287006f, 0.137405f, -0.954535f, -1.071690f, -0.380154f, 
     -0.037348f, -0.047843f, 0.175534f, 0.112285f, -0.109926f, 0.035309f, -0.137701f, -0.113047f, 
     -0.083521f, 0.018810f, -0.134797f, 0.033518f, 0.034161f, 0.051651f, -0.030342f, -0.187544f, 
     -0.040677f, 0.207125f, 0.249616f, 0.089111f, 0.129348f, 0.107065f, 0.172348f, 0.287296f, 
     0.187918f, -0.826181f, -0.783907f, -0.103468f, -0.016011f, 0.225160f, -0.104921f, -0.055943f, 
     -0.331023f, -0.211681f, 0.005072f, -0.013859f, -0.051844f, -0.158715f, -0.083580f, -0.004509f, 
     -0.132171f, -0.067923f, -0.385452f, -0.580878f, -0.521783f, -0.094846f, -0.055813f, 0.072121f, 
     0.137180f, 0.243619f, 0.213382f, 0.213471f, 0.222853f, -0.472507f, -0.809771f, -0.152253f, 
     0.019834f, 0.055713f, -0.063043f, -0.173886f, -0.233543f, -0.071085f, 0.162864f, 0.014218f, 
     -0.039711f, -0.063571f, -0.036566f, -0.006905f, 0.022773f, -0.182819f, -0.624505f, -0.804014f, 
     -0.634527f, -0.193522f, -0.092709f, -0.016199f, 0.051702f, 0.121052f, 0.220022f, 0.279375f, 
     0.449977f, -0.080802f, -0.588628f, -0.316009f, -0.028969f, 0.126636f, 0.022452f, -0.088230f, 
     -0.025074f, -0.012158f, 0.163295f, 0.175123f, 0.045694f, 0.015869f, 0.069606f, 0.021777f, 
     -0.001753f, -0.448885f, -0.699337f, -0.789269f, -0.586201f, -0.212736f, -0.042150f, -0.080217f, 
     -0.140489f, -0.001120f, 0.158785f, 0.283317f, 0.363551f, 0.092951f, -0.519240f, -0.305455f, 
     -0.122963f, -0.058628f, -0.112384f, -0.444070f, -0.081288f, 0.148701f, 0.168303f, 0.284953f, 
     0.158398f, 0.132987f, 0.097660f, 0.161066f, 0.092277f, -0.325434f, -0.781140f, -0.762274f, 
     -0.652086f, -0.179394f, -0.060078f, -0.139689f, -0.013783f, 0.097375f, 0.115295f, 0.213921f, 
     0.341892f, 0.072797f, -0.653071f, -0.217941f, -0.173690f, -0.088988f, -0.400074f, -0.444597f, 
     0.100536f, 0.249435f, 0.012251f, 0.272993f, 0.240483f, 0.213222f, 0.204269f, 0.057432f, 
     -0.098043f, -0.557685f, -0.932782f, -0.667257f, -0.488335f, -0.209610f, -0.080196f, -0.085292f, 
     0.083663f, 0.072595f, 0.120759f, 0.265219f, 0.308768f, -0.035978f, -0.613662f, -0.372617f, 
     -0.106511f, -0.055229f, -0.393756f, -0.274541f, 0.077654f, 0.259691f, 0.094673f, 0.210993f, 
     0.231676f, 0.225643f, 0.247020f, 0.092417f, -0.270438f, -0.848476f, -0.714669f, -0.417967f, 
     -0.298968f, -0.073704f, -0.019498f, 0.031164f, 0.140963f, 0.087298f, 0.042404f, 0.088883f, 
     -0.014603f, -0.380965f, -0.653399f, -0.076185f, 0.022274f, -0.181104f, -0.455942f, -0.278020f, 
     0.030605f, 0.111923f, 0.088275f, 0.135236f, 0.129864f, 0.288094f, 0.319671f, 0.114047f, 
     -0.213679f, -0.705431f, -0.609217f, -0.361667f, -0.143376f, 0.054212f, -0.003694f, 0.064380f, 
     0.060175f, 0.010960f, 0.122616f, -0.014161f, -0.083303f, -0.315935f, -0.465109f, 0.199601f, 
     -0.239636f, -0.192169f, -0.553264f, -0.428066f, -0.105217f, -0.021570f, 0.040653f, 0.091219f, 
     0.144523f, 0.205397f, 0.296448f, 0.100056f, -0.256718f, -0.553084f, -0.453850f, -0.171169f, 
     -0.081401f, -0.069819f, -0.053466f, -0.043015f, -0.073566f, -0.036795f, 0.086935f, 0.018528f, 
     -0.117075f, -0.355491f, -0.291903f, -0.328442f, 0.011878f, 0.213957f, -0.133874f, -0.305618f, 
     -0.119782f, -0.016212f, 0.052085f, 0.121364f, 0.107473f, 0.104993f, 0.233397f, 0.224498f, 
     0.087796f, -0.133292f, -0.195145f, -0.164341f, -0.096779f, -0.004034f, -0.054146f, -0.104419f, 
     -0.034299f, 0.057064f, 0.105703f, -0.098374f, -0.052688f, -0.506057f, -0.402846f, -0.184469f, 
     0.000121f, 0.231838f, -0.104787f, -0.218779f, 0.041096f, 0.100947f, -0.009834f, 0.030706f, 
     0.076398f, 0.099250f, 0.273920f, 0.374462f, 0.327536f, 0.112838f, 0.003160f, -0.005025f, 
     -0.109853f, -0.070021f, -0.095565f, -0.177216f, -0.129433f, -0.016542f, 0.055758f, -0.216802f, 
     -0.191615f, -0.529833f, -0.232813f, -0.043515f, -0.030322f, -0.112898f, -0.236681f, -0.132848f, 
     -0.095674f, 0.069463f, 0.008624f, 0.012048f, -0.024570f, 0.012961f, 0.188806f, 0.246408f, 
     0.221140f, 0.112801f, -0.007806f, 0.028504f, -0.063289f, -0.174687f, -0.222037f, -0.277659f, 
     -0.137066f, -0.027550f, -0.075832f, -0.131195f, -0.265073f, -0.396884f, 0.169437f, 0.006153f, 
     -0.024255f, -0.087284f, -0.380228f, -0.293914f, -0.515834f, -0.026258f, 0.048586f, 0.021344f, 
     0.088321f, 0.094737f, 0.102494f, 0.176451f, 0.160266f, 0.274244f, 0.119710f, 0.072332f, 
     -0.014785f, -0.014551f, -0.181735f, -0.075402f, -0.121304f, -0.115492f, 0.041207f, -0.070751f, 
     -0.270807f, -0.285283f, 0.227577f, 0.006075f, -0.017086f, -0.012406f, -0.329152f, -0.543127f, 
     -0.624475f, -0.295808f, -0.089848f, 0.063679f, 0.043155f, 0.203519f, 0.241573f, 0.301027f, 
     0.270339f, 0.207037f, 0.199769f, 0.116454f, 0.001736f, 0.056214f, -0.219255f, -0.365395f, 
     -0.394605f, -0.277765f, -0.125277f, -0.320182f, -0.401492f, -0.244248f, -0.252395f, -0.007932f, 
     -0.012742f, -0.011335f, -0.213687f, -0.230361f, -0.195920f, -0.243298f, -0.351553f, -0.335552f, 
     -0.125460f, -0.009203f, 0.046971f, -0.015322f, 0.183872f, 0.149233f, 0.086455f, 0.017712f, 
     -0.134980f, -0.172597f, -0.337804f, -0.646478f, -0.710546f, -0.648308f, -0.614483f, -0.663687f, 
     -0.370369f, -0.082305f, 0.000647f, 0.015401f, 0.030737f, -0.012458f, -0.186169f, -0.188075f, 
     -0.311207f, -0.571955f, -0.737489f, -0.629134f, -0.719193f, -0.857829f, -0.896633f, -0.702994f, 
     -0.898648f, -0.813213f, -0.915306f, -1.011737f, -0.912574f, -0.861666f, -0.909225f, -0.976021f, 
     -0.655504f, -0.666322f, -0.539605f, -0.455768f, -0.339460f, -0.050303f, -0.046674f, -0.001700f, 
     0.017484f, -0.029640f, -0.024685f, -0.020494f, -0.109111f, -0.230535f, -0.471882f, -0.524912f, 
     -0.771241f, -0.833483f, -0.808782f, -0.696204f, -0.766895f, -0.667687f, -0.603950f, -0.728857f, 
     -0.669374f, -0.621911f, -0.669442f, -0.396578f, -0.391165f, -0.530914f, -0.279861f, -0.290448f, 
     -0.042893f, -0.036625f, 0.017579f, 0.001871f, -0.024921f, 0.033270f, -0.011363f, 0.008141f, 
     -0.034784f, -0.060274f, -0.052181f, -0.109741f, -0.079609f, -0.111726f, -0.219737f, -0.246869f, 
     -0.209875f, -0.250366f, -0.319128f, -0.290741f, -0.182302f, -0.212959f, -0.199302f, -0.171680f, 
     -0.206132f, -0.313356f, -0.255742f, -0.269372f, -0.016786f, 0.001087f, -0.002306f, -0.015437f},
    {-0.004475f, 0.022188f, -0.007897f, -0.001323f, 0.021983f, 0.006655f, 0.005682f, 0.012917f, 
     -0.004096f, 0.034785f, -0.006617f, 0.010109f, -0.025138f, -0.027982f, 0.000260f, -0.041555f, 
     -0.025418f, -0.015761f, 0.027162f, -0.002328f, 0.015436f, -0.029655f, 0.014578f, 0.017471f, 
     0.022035f, 0.003419f, -0.033851f, -0.019668f, 0.026637f, 0.031181f, -0.032033f, 0.034730f, 
     -0.000098f, 0.012027f, 0.018338f, -0.157408f, -0.221223f, -0.215114f, -0.235137f, -0.176175f, 
     -0.189403f, -0.296575f, 0.244984f, 0.240612f, -0.409512f, -0.488761f, -0.142034f, -0.050838f, 
     0.009937f, -0.017782f, -0.012434f, -0.046915f, 0.004559f, -0.006864f, 0.018361f, -0.007764f, 
     0.003710f, 0.029695f, -0.015119f, -0.027025f, -0.085574f, -0.178571f, -0.120990f, -0.253217f, 
     -0.352026f, -0.335375f, -0.566305f, -0.419491f, -0.067229f, 0.237422f, 0.219248f, 0.437230f, 
     0.323490f, 0.005879f, -0.104742f, 0.011397f, -0.151646f, -0.449311f, -0.249473f, -0.187571f, 
     -0.127828f, -0.068766f, -0.034955f, -0.021298f, -0.002768f, -0.002391f, 0.213699f, 0.173657f, 
     -0.237552f, -0.359720f, -0.328894f, -0.511099f, -0.605772f, -0.349266f, -0.522668f, -0.658982f, 
     -0.278128f, -0.163447f, -0.213378f, -0.052173f, 0.055095f, -0.204406f, -0.381513f, -0.299386f, 
     -0.383285f, -0.350870f, -0.542624f, -0.661875f, -0.580518f, -0.359518f, -0.281872f, -0.000856f, 
     0.031892f, -0.034116f, 0.225868f, -0.013679f, 0.112212f, 0.100934f, 0.056783f, -0.090031f, 
     -0.018321f, -0.137478f, -0.136999f, -0.289379f, -0.144741f, 0.115827f, 0.077128f, 0.013744f, 
     -0.014588f, -0.121545f, -0.140576f, 0.086706f, 0.057467f, 0.032404f, -0.135551f, -0.187068f, 
     -0.576555f, -0.665431f, -0.484171f, -0.305022f, 0.013812f, 0.011804f, 0.185419f, 0.185931f, 
     0.353691f, 0.238626f, 0.185238f, -0.138704f, -0.377115f, -0.339242f, -0.270272f, -0.381551f, 
     -0.259075f, -0.063322f, -0.044789f, 0.012972f, -0.149475f, -0.256321f, -0.107014f, -0.048542f, 
     -0.000248f, 0.187125f, 0.155241f, 0.082494f, -0.060634f, -0.833741f, -0.377499f, -0.275644f, 
     -0.026919f, -0.053397f, -0.352157f, 0.141672f, 0.226626f, -0.086428f, -0.087436f, -0.284647f, 
     -0.350187f, -0.397308f, -0.230819f, -0.150618f, -0.249308f, -0.227705f, -0.212330f, -0.294230f, 
     -0.312248f, -0.314517f, -0.115109f, -0.121990f, 0.022873f, 0.042004f, 0.005875f, -0.015913f, 
     -0.126583f, -1.110996f, -0.403063f, -0.171693f, -0.021424f, -0.269550f, -0.293296f, -0.291142f, 
     0.015843f, -0.385336f, -0.431506f, -0.243390f, -0.472292f, -0.313083f, -0.194624f, -0.196592f, 
     -0.073387f, -0.177413f, -0.131102f, -0.327284f, -0.267142f, -0.171211f, -0.163987f, -0.030997f, 
     0.043651f, -0.051693f, -0.074126f, -0.179515f, -0.685952f, -1.090291f, -0.428104f, -0.260821f, 
     -0.094802f, -0.219163f, -0.272269f, -0.241272f, -0.059975f, -0.374727f, -0.441774f, -0.214537f, 
     -0.317395f, -0.423121f, -0.235545f, -0.219036f, -0.065499f, -0.038601f, -0.023050f, 0.004506f, 
     -0.149591f, 0.004814f, -0.099575f, -0.102378f, -0.231905f, -0.241616f, -0.269059f, -0.538098f, 
     -0.887422f, -0.992033f, -0.473749f, -0.241929f, -0.077004f, -0.172312f, -0.253527f, -0.290608f, 
     -0.219591f, -0.546111f, -0.379371f, -0.114000f, -0.229424f, -0.275091f, -0.182372f, -0.018104f, 
     -0.096541f, 0.081057f, 0.210270f, 0.381904f, 0.152068f, 0.046563f, -0.067477f, -0.197957f, 
     -0.343198f, -0.265718f, -0.404995f, -0.671803f, -0.769362f, -1.056899f, -0.454673f, -0.243640f, 
     -0.085190f, 0.051391f, -0.233465f, -0.316004f, -0.255215f, -0.697175f, -0.525551f, -0.284310f, 
     -0.139408f, -0.256558f, -0.078713f, 0.001880f, -0.020794f, 0.198104f, 0.503545f, 0.617870f, 
     0.269502f, 0.037670f, -0.180798f, -0.219258f, -0.340316f, -0.230181f, -0.438202f, -0.741811f, 
     -1.259086f, -0.411059f, -0.295503f, 0.159945f, 0.011605f, 0.164976f, 0.004258f, -0.292431f, 
     -0.126392f, -0.401660f, -0.584137f, -0.360731f, -0.266492f, -0.269020f, -0.141920f, -0.162225f, 
     -0.105445f, 0.262654f, 0.585557f, 0.583377f, 0.233266f, -0.053273f, -0.044047f, -0.105941f, 
     -0.165155f, -0.194197f, -0.328826f, -0.357197f, -0.945107f, -0.218651f, -0.258828f, 0.215940f, 
     -0.017319f, -0.255436f, -0.260302f, -0.097499f, 0.084294f, -0.310797f, -0.086610f, -0.053840f, 
     -0.176366f, -0.111967f, -0.357936f, -0.366715f, -0.145168f, 0.311502f, 0.635252f, 0.483243f, 
     0.113865f, -0.014506f, -0.030576f, -0.243084f, -0.207769f, -0.065093f, -0.083459f, -0.054576f, 
     -0.727150f, -0.351334f, -0.450227f, 0.102993f, 0.208304f, -0.108206f, -0.257315f, 0.201312f, 
     0.188256f, -0.139882f, -0.067213f, -0.160834f, 0.052259f, -0.181332f, -0.631591f, -0.575988f, 
     -0.181455f, 0.309010f, 0.558188f, 0.417728f, 0.137759f, 0.167733f, -0.199539f, -0.378648f, 
     -0.223815f, -0.128363f, -0.420105f, -0.596587f, -0.839107f, -0.439127f, -0.434173f, -0.234020f, 
     -0.055559f, -0.047376f, 0.193209f, 0.224246f, 0.282152f, -0.079407f, -0.307256f, -0.328037f, 
     0.008704f, -0.230932f, -0.648981f, -0.542842f, -0.058018f, 0.364096f, 0.518074f, 0.377434f, 
     0.094594f, -0.093917f, -0.460481f, -0.509258f, -0.309921f, -0.263913f, -0.163075f, -0.259124f, 
     -0.170585f, -0.231504f, 0.002350f, -0.079234f, -0.041816f, -0.053049f, 0.255066f, 0.198776f, 
     0.079392f, -0.574827f, -0.605188f, -0.191743f, 0.023075f, -0.280761f, -0.473859f, -0.193831f, 
     0.093988f, 0.375986f, 0.534469f, 0.230459f, 0.066157f, -0.386927f, -0.598233f, -0.776393f, 
     -0.572659f, -0.372652f, -0.395223f, -0.543851f, -0.431282f, -0.418373f, -0.287348f, -0.310651f, 
     -0.030660f, 0.157065f, 0.259170f, -0.144404f, -0.139430f, -0.373701f, -0.546807f, -0.315536f, 
     -0.211087f, -0.065726f, -0.132978f, -0.194170f, -0.064581f, 0.336570f, 0.483601f, 0.018804f, 
     -0.198079f, -0.704490f, -0.628933f, -0.617899f, -0.389738f, -0.231147f, -0.364955f, -0.595495f, 
     -0.156427f, -0.551795f, -0.218001f, -0.370387f, 0.008392f, 0.218705f, 0.061922f, -0.211000f, 
     -0.164748f, -0.644896f, -0.666153f, -0.418733f, -0.142796f, -0.115493f, -0.103603f, -0.231223f, 
     -0.034784f, 0.355504f, 0.425309f, -0.011341f, -0.416517f, -0.613597f, -0.415908f, -0.251043f, 
     -0.184636f, -0.153697f, -0.067290f, -0.207583f, -0.109501f, -0.434220f, -0.078395f, -0.319899f, 
     -0.106873f, 0.289345f, -0.118880f, -0.301025f, -0.729011f, -0.812066f, -0.941855f, -0.414623f, 
     -0.067425f, -0.034547f, -0.212081f, -0.178676f, 0.010554f, 0.206028f, 0.221764f, -0.188633f, 
     -0.379029f, -0.243126f, -0.073533f, -0.051446f, 0.055612f, -0.028601f, -0.182765f, -0.188848f, 
     -0.154821f, -0.077618f, 0.080480f, 0.242922f, 0.189618f, 0.170235f, -0.062414f, -0.409818f, 
     -0.773998f, -1.102515f, -0.400463f, -0.057499f, -0.070451f, 0.024315f, -0.085179f, -0.097953f, 
     -0.065220f, 0.103406f, -0.036996f, -0.074778f, 0.040264f, -0.030742f, 0.121129f, 0.209948f, 
     0.120858f, 0.003299f, -0.111744f, -0.088165f, 0.075275f, 0.166762f, 0.132455f, 0.222051f, 
     -0.014568f, -0.129454f, -0.249872f, -0.203929f, -0.330233f, -0.562199f, -0.114985f, -0.056299f, 
     0.074441f, 0.090595f, 0.126174f, 0.105657f, 0.043494f, -0.037793f, -0.001984f, -0.055436f, 
     0.155808f, 0.190210f, 0.368722f, 0.254027f, 0.108243f, 0.054591f, -0.060890f, -0.120877f, 
     0.068220f, 0.114753f, 0.202742f, 0.180785f, 0.207776f, 0.093155f, -0.203862f, 0.101987f, 
     0.226913f, 0.342867f, 0.231706f, 0.154719f, 0.122815f, 0.062000f, 0.205201f, -0.086562f, 
     -0.192729f, -0.194638f, 0.012728f, 0.098997f, 0.075263f, 0.138570f, 0.264996f, 0.197567f, 
     0.231702f, 0.181836f, -0.252550f, -0.270523f, 0.178270f, 0.183732f, -0.082493f, -0.022249f, 
     0.166471f, 0.157785f, -0.177132f, 0.037833f, 0.216235f, 0.755971f, 0.344614f, 0.117972f, 
     0.096856f, 0.029072f, -0.100259f, -0.318412f, -0.432934f, -0.347116f, -0.108962f, 0.007492f, 
     0.022213f, 0.239005f, 0.318408f, 0.230024f, 0.213406f, 0.036495f, -0.363603f, -0.205909f, 
     0.122429f, 0.232750f, 0.236819f, -0.027321f, 0.008680f, 0.033540f, -0.431321f, -0.443394f, 
     -0.201760f, 0.339533f, 0.276079f, 0.016681f, -0.075195f, -0.007263f, -0.168987f, -0.176110f, 
     -0.056646f, -0.178768f, -0.186314f, 0.017058f, 0.076153f, 0.327303f, 0.019572f, 0.085533f, 
     -0.055480f, -0.267736f, -0.325986f, -0.659879f, -0.360771f, 0.039779f, 0.347117f, 0.033940f, 
     -0.002363f, 0.007889f, -0.053609f, -0.392410f, -0.595358f, -0.085473f, -0.009370f, -0.192494f, 
     -0.288070f, -0.204494f, -0.250632f, -0.349459f, -0.275249f, -0.355608f, -0.367310f, -0.304512f, 
     -0.571687f, -0.094264f, 0.055419f, 0.041136f, -0.106759f, -0.130073f, -0.307111f, -0.359726f, 
     -0.317364f, 0.181985f, 0.259694f, -0.010948f, 0.025723f, 0.011617f, -0.062498f, -0.407656f, 
     -0.639144f, -0.854270f, -0.672447f, -0.827443f, -0.449429f, -0.589364f, -1.145946f, -1.188329f, 
     -0.623714f, -0.663891f, -0.581599f, -0.836946f, -1.271128f, -1.208904f, -1.216800f, -0.977489f, 
     -0.725245f, -0.398771f, -0.300749f, -0.215476f, -0.206172f, -0.045662f, -0.060867f, -0.026972f, 
     0.005138f, -0.008417f, 0.025859f, -0.178397f, -0.280998f, -0.443212f, -0.509637f, -0.432558f, 
     -0.663822f, -0.800893f, -0.543135f, -0.741507f, -0.961806f, -0.866392f, -0.801454f, -0.424283f, 
     -0.467440f, -0.803366f, -0.540108f, -0.548051f, -0.449381f, -0.320426f, -0.265214f, -0.201931f, 
     0.001224f, -0.010665f, -0.004659f, -0.003340f, 0.009326f, -0.016594f, -0.001405f, 0.018370f, 
     -0.038265f, -0.035397f, -0.008412f, -0.043650f, 0.002344f, -0.022881f, -0.244560f, -0.285428f, 
     -0.222462f, -0.329806f, -0.330796f, -0.109941f, -0.160708f, -0.253163f, -0.274374f, -0.312434f, 
     -0.219267f, -0.182143f, -0.100432f, -0.070521f, 0.024342f, -0.025596f, -0.003271f, 0.000385f},
    {0.000238f, 0.034654f, -0.027546f, 0.013663f, -0.029491f, 0.014848f, -0.027469f, 0.011767f, 
     -0.003957f, -0.012028f, -0.032304f, 0.021248f, -0.145528f, -0.133518f, 0.106763f, 0.110517f, 
     -0.030358f, 0.013551f, 0.000469f, -0.031366f, -0.005474f, -0.020099f, -0.023587f, 0.014987f, 
     0.005074f, -0.015638f, -0.024775f, 0.014386f, 0.016057f, 0.019903f, -0.028415f, 0.011917f, 
     -0.158313f, -0.126360f, -0.212277f, -0.291026f, -0.049695f, -0.137631f, -0.284835f, -0.300907f, 
     -0.474373f, -0.422114f, 0.010216f, 0.137697f, 0.390640f, 0.079078f, -0.467479f, -0.536159f, 
     -0.345816f, -0.219973f, -0.122431f, -0.177639f, -0.032375f, -0.033674f, 0.001408f, 0.011635f, 
     0.002394f, 0.002761f, -0.057965f, -0.216930f, -0.263092f, -0.123835f, -0.071146f, -0.165043f, 
     0.071677f, 0.178822f, 0.060916f, 0.178546f, 0.150948f, -0.001809f, 0.024402f, 0.114046f, 
     0.142833f, 0.006586f, -0.070597f, -0.293085f, -0.174294f, -0.151982f, -0.490597f, 0.006962f, 
     0.196107f, 0.177174f, -0.018456f, -0.027120f, 0.024709f, 0.016938f, -0.091779f, -0.200506f, 
     -0.323989f, -0.157388f, -0.063328f, 0.081346f, 0.129771f, 0.370040f, 0.283080f, 0.316795f, 
     0.303051f, 0.340920f, 0.200542f, 0.102411f, 0.153831f, 0.070187f, -0.168827f, -0.213024f, 
     -0.284356f, -0.244113f, -0.348035f, -0.802961f, -0.048766f, 0.158534f, -0.162925f, -0.008390f, 
     -0.019842f, -0.179740f, -0.209779f, -0.278882f, -0.340426f, 0.035110f, 0.342554f, 0.102820f, 
     0.092043f, 0.273679f, 0.209292f, 0.195030f, 0.209153f, 0.165321f, 0.209570f, 0.095511f, 
     0.087763f, 0.047878f, -0.028735f, -0.149387f, -0.164831f, -0.304722f, -0.476867f, -0.712543f, 
     -0.523823f, 0.005663f, -0.326843f, -0.250065f, -0.011537f, -0.002988f, 0.069321f, -0.097904f, 
     0.031465f, 0.066630f, 0.064446f, 0.057992f, 0.103666f, 0.102366f, 0.113593f, 0.185641f, 
     0.140750f, 0.152248f, 0.147134f, 0.127508f, 0.238649f, 0.163988f, 0.099366f, -0.025968f, 
     -0.032515f, 0.004122f, -0.112589f, -0.278278f, -0.613108f, -0.132183f, -0.323748f, -0.221083f, 
     -0.028119f, -0.172844f, -0.146769f, -0.042263f, 0.205449f, 0.096291f, 0.117669f, 0.097751f, 
     0.044407f, 0.081937f, 0.058484f, 0.001584f, 0.018616f, 0.069406f, 0.091200f, 0.079982f, 
     0.114896f, -0.006423f, -0.007523f, -0.071843f, -0.113558f, -0.114537f, -0.145417f, -0.578155f, 
     -0.689842f, -0.408420f, -0.538362f, -0.254624f, -0.038604f, -0.334149f, 0.139079f, 0.122221f, 
     0.283367f, 0.111232f, 0.150337f, 0.023219f, 0.081165f, 0.001922f, -0.009044f, 0.095421f, 
     0.007694f, 0.079105f, 0.043934f, -0.057181f, -0.028882f, -0.195229f, -0.076156f, -0.071707f, 
     -0.062094f, -0.047679f, 0.066110f, -0.544766f, -0.771305f, -0.303793f, -0.506378f, -0.293317f, 
     -0.202846f, 0.080679f, 0.009888f, 0.058496f, 0.285888f, 0.084100f, 0.025299f, 0.031933f, 
     0.030212f, 0.032599f, 0.195609f, 0.079714f, -0.041572f, 0.009413f, 0.083648f, 0.065062f, 
     -0.025521f, -0.041317f, -0.095164f, 0.089415f, 0.017188f, -0.056471f, -0.060341f, -0.102045f, 
     -1.055730f, -1.128004f, -0.646853f, -0.234352f, 0.008460f, -0.404237f, -0.111020f, 0.106638f, 
     0.225654f, 0.229465f, 0.005995f, -0.019083f, -0.054025f, 0.082126f, 0.146806f, 0.047738f, 
     0.043783f, 0.024186f, 0.123620f, 0.163594f, 0.117755f, 0.052610f, 0.046565f, 0.032111f, 
     -0.015552f, -0.092921f, -0.064507f, -0.134587f, -1.071085f, -1.051886f, -0.222877f, -0.347079f, 
     -0.016906f, -0.279396f, -0.110265f, 0.153626f, -0.062881f, 0.232385f, 0.134428f, -0.109074f, 
     -0.067441f, -0.100293f, -0.134114f, -0.094687f, -0.125212f, -0.251832f, -0.136532f, -0.128541f, 
     -0.019690f, 0.055922f, 0.040290f, -0.009890f, -0.029851f, -0.119701f, -0.082036f, -0.180969f, 
     -0.720399f, -0.471395f, -0.014338f, -0.300612f, 0.012007f, -0.282331f, -0.404957f, -0.219524f, 
     -0.111020f, 0.031335f, -0.128123f, -0.379814f, -0.428492f, -0.506166f, -0.660081f, -0.590375f, 
     -0.639914f, -0.748212f, -0.629205f, -0.401744f, -0.189731f, -0.246540f, -0.077595f, 0.095877f, 
     -0.028202f, -0.035864f, -0.101788f, -0.191433f, -0.276723f, 0.092239f, -0.004392f, -0.311438f, 
     -0.096996f, -0.197131f, -0.277301f, -0.452450f, -0.367835f, -0.436525f, -0.773291f, -0.841499f, 
     -0.588449f, -0.504778f, -0.548326f, -0.521996f, -0.564706f, -0.473603f, -0.515414f, -0.446898f, 
     -0.329068f, -0.304853f, -0.184402f, 0.037439f, -0.058727f, -0.055565f, -0.175160f, -0.360766f, 
     0.069153f, 0.508274f, 0.477803f, 0.200009f, -0.166025f, -0.195187f, -0.151955f, -0.382950f, 
     -0.762470f, -0.857833f, -0.889544f, -0.740992f, -0.408442f, -0.315329f, -0.222924f, -0.063087f, 
     -0.125764f, -0.043944f, -0.113020f, -0.278994f, -0.265929f, -0.152411f, -0.161356f, -0.100550f, 
     -0.094094f, -0.076839f, -0.147965f, -0.141446f, 0.394164f, 0.725713f, 0.899965f, 0.355379f, 
     -0.155941f, -0.262667f, -0.247980f, -0.290063f, -0.540326f, -0.613162f, -0.348044f, -0.168624f, 
     -0.138771f, -0.127232f, -0.093851f, -0.006570f, -0.000209f, 0.120360f, 0.021790f, -0.154363f, 
     -0.091253f, -0.188276f, -0.092609f, -0.096748f, -0.053003f, -0.152653f, -0.148685f, -0.039308f, 
     0.232387f, 0.520889f, 0.827058f, 0.354170f, -0.204198f, -0.267642f, -0.246328f, 0.111694f, 
     0.049280f, 0.166070f, 0.159208f, -0.056342f, -0.019489f, -0.007391f, -0.013005f, 0.007738f, 
     -0.008006f, 0.164738f, 0.026179f, -0.004772f, -0.037550f, -0.119963f, -0.094974f, -0.057286f, 
     -0.167814f, -0.120195f, -0.231703f, -0.125796f, 0.387710f, 0.570993f, 0.716523f, 0.421691f, 
     -0.013980f, -0.225366f, -0.016632f, 0.375150f, 0.283787f, 0.276144f, 0.217348f, -0.014104f, 
     -0.168794f, 0.088524f, 0.108450f, 0.163996f, 0.238576f, 0.227898f, 0.080477f, 0.023734f, 
     0.052009f, 0.148699f, -0.007622f, -0.010401f, -0.114885f, 0.141746f, 0.109680f, 0.083035f, 
     0.366520f, 0.825924f, 0.859378f, 0.411419f, 0.032209f, -0.330551f, 0.117915f, 0.318690f, 
     0.303033f, 0.255564f, 0.216395f, 0.094016f, 0.034351f, 0.109692f, 0.220252f, 0.234832f, 
     0.319139f, 0.256566f, 0.023339f, 0.029871f, -0.003717f, -0.034336f, 0.041639f, -0.002902f, 
     -0.033368f, 0.077157f, 0.121001f, 0.052345f, 0.309060f, 0.904063f, 0.593701f, 0.516369f, 
     -0.202899f, -0.303908f, -0.092563f, 0.053024f, 0.285990f, 0.253741f, 0.164702f, 0.250790f, 
     0.073561f, 0.044934f, 0.172132f, 0.143922f, 0.290668f, 0.198674f, 0.087915f, 0.024943f, 
     0.093872f, 0.186493f, 0.094678f, 0.039533f, -0.046864f, 0.081132f, 0.181676f, 0.283685f, 
     0.515613f, 0.772412f, 0.262139f, 0.347139f, -0.214904f, -0.308791f, -0.064367f, -0.190550f, 
     0.118364f, 0.091256f, 0.055704f, 0.260844f, 0.171255f, 0.172542f, 0.177628f, 0.178284f, 
     0.180920f, 0.261948f, 0.117936f, 0.111605f, 0.152010f, 0.167438f, 0.071023f, -0.014751f, 
     0.071600f, 0.176859f, 0.240913f, 0.212568f, 0.238927f, 0.720536f, 0.482316f, 0.257558f, 
     -0.021918f, -0.298462f, 0.134934f, -0.030955f, 0.183091f, 0.115450f, 0.120801f, 0.303059f, 
     0.179885f, 0.175912f, 0.165149f, 0.241893f, 0.156702f, 0.082832f, 0.017416f, 0.087639f, 
     0.059433f, -0.042179f, 0.114847f, 0.184741f, 0.190360f, 0.210082f, 0.195307f, 0.167812f, 
     0.283587f, 0.406686f, 0.194323f, -0.206131f, -0.242586f, 0.044949f, 0.182120f, 0.060821f, 
     0.059225f, 0.052955f, 0.109818f, 0.079658f, 0.034962f, 0.184114f, 0.163307f, 0.136093f, 
     0.047000f, 0.052531f, -0.006921f, -0.080795f, 0.054113f, 0.157578f, 0.219877f, 0.325912f, 
     0.067641f, 0.143457f, 0.193348f, 0.352026f, 0.247461f, 0.349242f, 0.118676f, -0.051991f, 
     -0.197183f, -0.251921f, 0.141331f, 0.195039f, 0.161342f, 0.103556f, 0.194841f, 0.208911f, 
     0.257542f, 0.246694f, 0.136563f, 0.095494f, 0.059028f, -0.000786f, -0.055436f, -0.089859f, 
     -0.020334f, 0.058443f, 0.229460f, 0.176789f, 0.167259f, 0.139602f, 0.199391f, 0.132161f, 
     0.231865f, 0.081651f, -0.216627f, -0.057999f, 0.011483f, 0.017693f, -0.194865f, -0.233376f, 
     -0.036603f, -0.090512f, 0.058361f, 0.099155f, 0.073485f, 0.082548f, 0.008460f, 0.065338f, 
     0.093158f, -0.084857f, -0.065559f, -0.079447f, -0.025676f, -0.025615f, 0.209153f, 0.335935f, 
     0.245327f, 0.304812f, 0.335605f, 0.237257f, 0.239727f, 0.110215f, -0.226608f, -0.031680f, 
     0.025504f, -0.033831f, -0.242826f, -0.621861f, -0.463118f, -0.581434f, -0.465801f, -0.318387f, 
     -0.161419f, -0.106657f, -0.179600f, -0.127937f, 0.026412f, -0.012454f, 0.123612f, -0.047164f, 
     -0.087453f, 0.076088f, 0.175022f, 0.036229f, 0.023220f, 0.163145f, -0.023517f, 0.065930f, 
     0.592465f, 0.505186f, 0.256211f, -0.030518f, 0.009650f, 0.035602f, -0.129430f, -0.400136f, 
     -0.624359f, -1.002049f, -0.359927f, -0.616184f, -0.914185f, -1.026778f, -0.791295f, -0.667014f, 
     -0.522639f, -0.307572f, -0.081859f, -0.032779f, -0.111490f, -0.160232f, -0.393212f, -0.501486f, 
     -0.404995f, -0.425452f, -0.544232f, -0.485017f, -0.244015f, 0.219053f, 0.251426f, -0.030880f, 
     -0.007467f, -0.019342f, -0.015813f, -0.147362f, -0.174377f, -0.307014f, -0.406607f, -0.612897f, 
     -0.593892f, -0.571438f, -0.740006f, -0.490117f, -0.808930f, -0.956668f, -1.026897f, -0.814054f, 
     -0.830275f, -0.619057f, -0.857298f, -0.758270f, -0.637328f, -0.608754f, -0.437846f, -0.212270f, 
     -0.071604f, -0.095353f, 0.013219f, -0.026011f, -0.024563f, -0.015394f, 0.003534f, -0.017044f, 
     -0.013999f, 0.020229f, -0.031545f, -0.089824f, -0.074503f, -0.092330f, -0.255778f, -0.286545f, 
     -0.241826f, -0.230458f, -0.198887f, -0.214344f, -0.205438f, -0.223348f, -0.271856f, -0.269783f, 
     -0.281152f, -0.424809f, -0.272052f, -0.251015f, -0.022606f, 0.031892f, 0.014191f, 0.016229f},
    {-0.035002f, 0.015709f, 0.005431f, 0.019360f, 0.021818f, -0.007056f, -0.023895f, -0.015916f, 
     0.029010f, -0.034179f, 0.031618f, 0.008057f, -0.138696f, -0.141681f, -0.154176f, -0.081239f, 
     -0.010035f, 0.022782f, -0.015852f, 0.003982f, 0.033556f, -0.010027f, 0.024488f, -0.013404f, 
     0.016064f, 0.032885f, -0.033161f, -0.015414f, 0.016702f, 0.002912f, 0.006418f, -0.000375f, 
     0.003726f, -0.010851f, -0.129300f, -0.119327f, -0.135313f, -0.110770f, -0.219971f, -0.178915f, 
     -0.237579f, -0.272445f, -0.254720f, -0.284383f, -0.434439f, -0.334885f, -0.136270f, -0.126059f, 
     -0.146170f, -0.022763f, -0.015237f, -0.041376f, 0.022308f, -0.009462f, -0.024045f, -0.001429f, 
     0.027730f, 0.032616f, -0.013652f, -0.088682f, -0.103607f, -0.307313f, -0.266284f, -0.389906f, 
     -0.529987f, -0.687668f, -0.132121f, 0.054695f, 0.012846f, -0.143992f, -0.109190f, -0.299110f, 
     -0.176186f, -0.183321f, -0.298039f, -0.343225f, -0.441055f, -0.478797f, -0.428885f, -0.310824f, 
     -0.108436f, -0.064055f, -0.001025f, 0.018816f, -0.005003f, -0.030093f, -0.238688f, -0.289473f, 
     -0.279565f, 0.296010f, 0.207831f, 0.208436f, 0.314580f, 0.017963f, 0.160713f, 0.288621f, 
     0.368739f, 0.214503f, 0.331192f, 0.248041f, 0.204392f, 0.197895f, 0.241580f, 0.170543f, 
     0.273888f, -0.173051f, -0.665127f, -0.538750f, -0.353821f, -0.172175f, -0.062174f, 0.013318f, 
     0.001515f, 0.225266f, 0.100813f, 0.311407f, 0.260042f, 0.446652f, 0.271539f, 0.244872f, 
     0.297204f, 0.187154f, 0.264252f, 0.275295f, 0.256795f, 0.304770f, 0.164572f, 0.163805f, 
     0.194047f, 0.094379f, 0.173170f, 0.056799f, -0.053715f, -0.201113f, -0.160797f, -0.876422f, 
     -0.843451f, -0.221238f, -0.096726f, -0.205014f, 0.002950f, -0.012998f, 0.035362f, 0.319793f, 
     0.424791f, 0.375548f, 0.278826f, 0.180186f, 0.100674f, 0.124676f, 0.141995f, 0.107101f, 
     0.110866f, 0.061858f, 0.067587f, 0.148553f, 0.163678f, -0.004936f, 0.017180f, 0.081944f, 
     -0.070837f, -0.171006f, -0.200276f, -0.352440f, -0.515400f, -0.810778f, -0.290049f, -0.115937f, 
     0.033723f, 0.224544f, 0.009004f, 0.282534f, 0.156893f, 0.181451f, 0.207899f, 0.062449f, 
     0.105726f, 0.177323f, 0.165380f, 0.078739f, 0.086029f, 0.164135f, 0.117754f, 0.102858f, 
     0.165486f, 0.089209f, 0.105002f, -0.040437f, -0.019815f, -0.005675f, -0.119363f, -0.280046f, 
     -0.300067f, -1.159916f, -0.419949f, -0.057966f, -0.197475f, 0.330507f, -0.242012f, 0.100994f, 
     0.301751f, 0.264473f, 0.151979f, 0.048850f, 0.024503f, 0.084032f, 0.011992f, 0.005379f, 
     0.087806f, 0.071158f, 0.201872f, 0.141809f, 0.051756f, 0.044677f, 0.023605f, 0.072328f, 
     0.012585f, -0.178628f, -0.162898f, -0.300560f, -0.561282f, -1.068706f, -0.343064f, -0.146329f, 
     -0.222115f, -0.184493f, -0.213745f, 0.106767f, 0.269267f, 0.091855f, 0.018159f, 0.049502f, 
     -0.039999f, -0.046362f, 0.044709f, 0.006346f, 0.023048f, 0.046889f, 0.150405f, 0.130905f, 
     0.101750f, 0.067247f, 0.150227f, 0.106166f, 0.120735f, 0.028716f, 0.130160f, -0.478828f, 
     -1.121789f, -1.257079f, -0.443373f, -0.084793f, -0.142509f, -0.163832f, 0.093003f, 0.214647f, 
     0.434633f, 0.070176f, 0.112920f, 0.093738f, -0.013074f, -0.062119f, -0.200547f, -0.309846f, 
     -0.252024f, -0.080271f, 0.183460f, 0.312200f, 0.195301f, 0.150403f, 0.106270f, 0.163784f, 
     0.227819f, 0.163767f, 0.231563f, -0.210288f, -1.849794f, -0.672612f, -0.555021f, -0.160588f, 
     -0.164559f, -0.253825f, 0.054158f, 0.427490f, 0.194443f, -0.037105f, 0.014282f, -0.122159f, 
     -0.251198f, -0.440659f, -0.477392f, -0.449762f, -0.423878f, -0.006851f, 0.125252f, 0.142076f, 
     0.135453f, 0.132378f, 0.158372f, 0.184965f, 0.242605f, 0.083644f, 0.135692f, -0.009619f, 
     -1.497718f, -0.286052f, -0.503260f, -0.154954f, -0.124494f, -0.260367f, 0.072638f, 0.532924f, 
     0.210278f, -0.237784f, -0.243743f, -0.437358f, -0.489117f, -0.412033f, -0.325661f, -0.259906f, 
     -0.096643f, 0.069955f, 0.091427f, 0.092113f, 0.031952f, 0.168943f, 0.091240f, 0.141660f, 
     0.170789f, -0.098619f, -0.078086f, -0.263560f, -1.141752f, -0.033821f, -0.381417f, -0.184358f, 
     -0.170991f, -0.316579f, -0.427321f, 0.064888f, -0.089539f, -0.348246f, -0.405157f, -0.397893f, 
     -0.390332f, -0.220729f, -0.039651f, -0.116166f, 0.018602f, 0.107888f, 0.207092f, 0.076599f, 
     0.023554f, 0.056542f, 0.053818f, -0.048115f, -0.168323f, -0.488975f, -0.562645f, -0.574842f, 
     -0.838444f, 0.205978f, -0.218568f, -0.198333f, -0.169334f, -0.261638f, -0.454325f, 0.003805f, 
     -0.310871f, -0.321976f, -0.336313f, -0.354989f, -0.198729f, -0.130354f, -0.173037f, -0.172632f, 
     0.001522f, 0.178378f, 0.143786f, -0.034324f, 0.012739f, 0.046590f, 0.080150f, -0.139946f, 
     -0.355013f, -0.518064f, -0.668795f, -0.409792f, -0.297464f, -0.079305f, -0.490561f, -0.259839f, 
     -0.244613f, 0.180387f, 0.010206f, -0.005605f, -0.198095f, -0.447741f, -0.407963f, -0.395015f, 
     -0.222917f, -0.126092f, -0.187266f, -0.169541f, 0.064351f, 0.076856f, 0.043019f, -0.000122f, 
     -0.034813f, -0.017883f, -0.029431f, -0.116415f, -0.190004f, -0.070008f, -0.327957f, -0.193603f, 
     -0.175627f, -0.445517f, -0.338548f, -0.176190f, -0.228265f, 0.175403f, 0.290503f, 0.016926f, 
     -0.054462f, -0.142123f, -0.264653f, -0.348514f, -0.339870f, -0.256826f, -0.169705f, -0.050613f, 
     0.067771f, 0.089993f, 0.107600f, 0.055479f, -0.081543f, -0.094618f, -0.061416f, 0.064894f, 
     0.107616f, 0.079924f, 0.162309f, 0.272271f, 0.197224f, -0.996076f, 0.016522f, -0.280303f, 
     -0.155884f, 0.252628f, 0.332765f, 0.153537f, 0.252843f, 0.076123f, -0.179343f, -0.279275f, 
     -0.388982f, -0.219415f, -0.203593f, -0.121496f, 0.009132f, 0.146410f, -0.078785f, -0.197543f, 
     -0.238210f, -0.076499f, 0.131035f, 0.206372f, 0.138302f, 0.090560f, 0.210307f, 0.350461f, 
     0.464559f, -0.833917f, -0.563175f, -0.377359f, -0.030736f, 0.306985f, 0.144665f, 0.359160f, 
     0.299192f, 0.051562f, -0.099859f, -0.123238f, -0.280844f, -0.461393f, -0.506327f, -0.425845f, 
     -0.302605f, -0.231491f, -0.332348f, -0.235257f, -0.006855f, 0.149061f, 0.076039f, 0.222858f, 
     0.015824f, 0.110084f, 0.195519f, 0.225576f, -0.130570f, -0.874918f, -0.574530f, -0.318604f, 
     -0.343027f, 0.339645f, 0.182125f, 0.631856f, 0.224923f, 0.209988f, 0.104442f, -0.142622f, 
     -0.137494f, -0.382335f, -0.445672f, -0.412016f, -0.475591f, -0.341699f, -0.280505f, 0.058472f, 
     0.203188f, 0.186299f, 0.141293f, 0.191019f, 0.069449f, 0.202869f, 0.239857f, 0.082827f, 
     -0.423215f, -1.020655f, -0.442034f, -0.233140f, -0.192794f, -0.076484f, -0.181646f, 0.497556f, 
     0.244655f, 0.324831f, 0.097201f, -0.010740f, -0.045287f, -0.057672f, -0.174652f, -0.251982f, 
     -0.281199f, -0.170669f, -0.024028f, 0.037095f, 0.184468f, 0.213339f, 0.225677f, 0.126321f, 
     0.067893f, 0.166783f, 0.052080f, 0.027810f, -0.234678f, -1.227426f, -0.446577f, -0.247192f, 
     -0.006364f, -0.074970f, -0.159875f, 0.396870f, 0.251597f, 0.231718f, 0.243088f, 0.155130f, 
     0.135582f, 0.147089f, -0.091085f, -0.183877f, -0.274086f, -0.096462f, 0.062238f, 0.040930f, 
     0.064721f, 0.166621f, 0.189799f, 0.113494f, 0.194711f, 0.046716f, -0.093449f, -0.004382f, 
     -0.218257f, -0.978392f, -0.039997f, -0.083055f, -0.223108f, 0.122658f, 0.102357f, 0.309580f, 
     0.190322f, 0.048686f, 0.187482f, 0.113724f, 0.060400f, -0.078477f, -0.082571f, -0.120696f, 
     -0.105639f, -0.077933f, -0.069256f, 0.001170f, 0.073949f, 0.062525f, 0.143929f, 0.181788f, 
     0.002579f, -0.135738f, -0.089483f, -0.215348f, -0.626705f, -0.888100f, -0.144414f, -0.003246f, 
     -0.195154f, 0.087590f, 0.160006f, 0.361859f, 0.135894f, 0.000450f, 0.084385f, 0.067959f, 
     -0.011762f, 0.021900f, 0.004714f, 0.045367f, -0.050358f, -0.089151f, -0.036289f, 0.066756f, 
     0.031053f, 0.115691f, 0.088322f, 0.131415f, 0.052991f, -0.102027f, -0.016744f, -0.152233f, 
     -0.720986f, -0.343834f, 0.076228f, -0.009561f, 0.031195f, -0.024733f, 0.577235f, 0.597547f, 
     0.418435f, 0.228169f, 0.242011f, 0.234329f, 0.031274f, 0.125253f, 0.147837f, 0.136722f, 
     -0.057801f, 0.060432f, -0.048167f, -0.017562f, -0.074841f, 0.050196f, 0.217686f, 0.056676f, 
     -0.057356f, -0.185426f, -0.322175f, -0.348317f, -0.195469f, -0.298025f, 0.238204f, 0.015970f, 
     -0.028731f, -0.034709f, 0.228170f, 0.476344f, 0.507414f, 0.245819f, 0.379102f, 0.335223f, 
     0.221021f, 0.185664f, 0.269970f, 0.266732f, 0.210112f, 0.237190f, 0.182741f, 0.079563f, 
     0.106076f, 0.100525f, -0.138211f, -0.241467f, -0.147435f, -0.090127f, -0.087851f, -0.166246f, 
     -0.462404f, -0.239870f, -0.113200f, 0.026081f, -0.010054f, -0.030587f, 0.256613f, -0.240788f, 
     -0.097073f, 0.206062f, 0.417912f, 0.555205f, 0.636625f, 0.564606f, 0.491546f, 0.429473f, 
     0.525314f, 0.439937f, 0.253555f, 0.104834f, 0.191235f, 0.028511f, 0.030886f, 0.222299f, 
     0.003493f, -0.253226f, -0.066627f, -0.524488f, -0.203982f, -0.132123f, -0.002568f, 0.017392f, 
     0.005223f, -0.023642f, 0.019566f, -0.191605f, -0.242291f, 0.173456f, 0.046972f, 0.047302f, 
     -0.080830f, -0.119516f, -0.041451f, -0.075153f, -0.151344f, -0.039207f, -0.107785f, -0.074807f, 
     0.024839f, 0.077067f, 0.027075f, 0.037799f, 0.019770f, -0.062259f, -0.055142f, -0.389084f, 
     -0.043995f, -0.079796f, 0.034047f, 0.026003f, -0.014145f, -0.025325f, 0.006762f, -0.007006f, 
     -0.013799f, -0.050182f, -0.161162f, -0.282756f, -0.244635f, -0.365999f, -0.531370f, -0.630452f, 
     -0.541810f, -0.652387f, -0.616005f, -0.745397f, -0.691541f, -0.728410f, -0.434886f, -0.472959f, 
     -0.432522f, -0.470051f, -0.309539f, -0.207750f, 0.001503f, 0.011746f, -0.003071f, -0.000170f},
    {0.034368f, -0.022680f, -0.029114f, 0.004251f, -0.006631f, 0.023228f, -0.001616f, -0.010906f, 
     0.030210f, -0.033457f, -0.028065f, 0.011948f, -0.134454f, -0.183354f, -0.065423f, -0.011911f, 
     -0.016417f, 0.006767f, -0.022716f, 0.022245f, 0.013089f, -0.002427f, -0.014061f, 0.021539f, 
     -0.006541f, 0.010566f, -0.003044f, 0.017374f, -0.016837f, -0.017517f, 0.012647f, -0.003111f, 
     -0.130005f, -0.204267f, -0.323478f, -0.422035f, -0.361785f, -0.569363f, -0.438299f, -0.669281f, 
     -0.768970f, -0.597587f, -0.122943f, -0.561827f, -0.636823f, -0.545909f, -0.586690f, -0.384783f, 
     -0.478644f, -0.305934f, -0.340257f, -0.289020f, 0.029689f, 0.006741f, -0.029793f, -0.003537f, 
     -0.012665f, 0.016442f, -0.134222f, -0.246246f, -0.424183f, -0.192025f, -0.441836f, -0.595906f, 
     -0.714962f, -0.914675f, -0.948771f, -1.410321f, -1.016591f, -0.653858f, -0.424111f, -0.568669f, 
     -0.611652f, -0.472026f, -1.047166f, -0.846769f, -0.724250f, -0.460173f, -0.411943f, -0.565101f, 
     -0.353893f, -0.216804f, 0.023255f, 0.004700f, 0.029020f, -0.018773f, -0.116361f, -0.345304f, 
     -0.453221f, -0.334367f, -0.473805f, -0.415989f, -0.644299f, -0.899808f, -0.761594f, -0.915365f, 
     -1.026807f, -1.219961f, -0.756324f, -0.714506f, -0.599289f, -0.448774f, -0.541527f, -0.152430f, 
     -0.108018f, -0.038648f, -0.007926f, -0.055001f, -0.307475f, -0.273465f, -0.202753f, 0.005421f, 
     0.018607f, -0.022681f, -0.088675f, -0.288151f, 0.155861f, 0.035135f, -0.313189f, -0.162247f, 
     -0.275722f, -0.384323f, -0.541893f, -0.414187f, -0.346752f, -0.231903f, -0.373638f, -0.428550f, 
     -0.220692f, -0.158232f, -0.180070f, 0.116812f, 0.305962f, 0.314121f, 0.411128f, 0.342337f, 
     0.318679f, -0.047989f, -0.304413f, -0.243359f, 0.004602f, 0.015331f, -0.329446f, 0.000936f, 
     0.183098f, 0.138341f, -0.063661f, -0.064881f, -0.083263f, 0.026342f, -0.174208f, -0.157338f, 
     -0.107090f, -0.282892f, -0.029844f, -0.018150f, 0.023332f, -0.000706f, 0.082517f, 0.064336f, 
     -0.001229f, 0.005666f, 0.118249f, 0.424165f, 0.159765f, -0.196194f, -0.412514f, -0.309398f, 
     -0.001927f, -0.077278f, -0.343947f, -0.292453f, 0.100569f, 0.162725f, -0.038881f, -0.014531f, 
     -0.027934f, -0.024822f, -0.166164f, -0.300284f, -0.316554f, -0.408662f, -0.407747f, -0.462615f, 
     -0.382922f, -0.281618f, -0.363118f, -0.134385f, -0.158836f, -0.107040f, 0.097811f, 0.378964f, 
     0.021377f, -0.140009f, 0.018537f, -0.529796f, -0.022906f, -0.273247f, -0.333520f, -0.158837f, 
     0.100083f, 0.255609f, 0.023657f, 0.008347f, -0.077599f, -0.035527f, -0.182644f, -0.200825f, 
     -0.421921f, -0.355309f, -0.419380f, -0.444497f, -0.440910f, -0.223877f, -0.208404f, -0.113806f, 
     -0.129435f, -0.065872f, 0.065256f, 0.164407f, 0.031589f, -0.100149f, 0.139267f, -0.553617f, 
     -0.241198f, -0.291782f, 0.083859f, -0.069136f, 0.007616f, 0.113297f, 0.000834f, -0.016170f, 
     -0.159721f, -0.018937f, -0.170036f, -0.147980f, -0.216125f, -0.254264f, -0.421940f, -0.338069f, 
     -0.363117f, -0.250462f, -0.083617f, -0.119392f, -0.072885f, -0.048073f, -0.138096f, -0.041549f, 
     -0.141178f, -0.021067f, -0.161534f, -0.340930f, -0.159645f, -0.301563f, -0.062515f, -0.469441f, 
     -0.316446f, -0.121806f, -0.161128f, -0.087911f, -0.098409f, -0.034106f, -0.111306f, -0.092951f, 
     -0.108107f, -0.136892f, -0.550008f, -0.440362f, -0.106540f, -0.135839f, -0.018585f, -0.066850f, 
     -0.029685f, -0.037040f, -0.098623f, -0.144419f, -0.511332f, -0.540955f, -0.370352f, -0.346567f, 
     -0.209673f, -0.173713f, -0.308631f, -0.483163f, -0.264512f, -0.299925f, -0.263397f, -0.075814f, 
     -0.021236f, 0.063620f, 0.042236f, 0.040514f, 0.156789f, -0.258316f, -0.773931f, -0.208983f, 
     -0.049843f, 0.014047f, -0.053059f, 0.028122f, -0.137142f, -0.087678f, -0.118518f, -0.489256f, 
     -0.608183f, -0.654073f, -0.682580f, -0.310821f, -0.152306f, -0.421043f, -0.500100f, -0.266383f, 
     -0.291050f, -0.140303f, 0.005328f, 0.024373f, 0.122667f, 0.240084f, 0.274046f, 0.200534f, 
     0.313994f, -0.488450f, -0.789045f, 0.021350f, 0.296389f, 0.151856f, -0.055444f, -0.027834f, 
     -0.187794f, -0.164795f, -0.188303f, -0.543427f, -0.896447f, -0.682753f, -0.562498f, -0.281875f, 
     -0.011647f, -0.319741f, -0.516159f, -0.369280f, -0.386987f, -0.041581f, 0.094466f, 0.264978f, 
     0.296644f, 0.264464f, 0.380952f, 0.501017f, 0.554381f, -0.130007f, -0.455369f, 0.124410f, 
     0.281670f, 0.079339f, -0.011445f, 0.049594f, 0.043432f, 0.163761f, 0.023988f, -0.329242f, 
     -0.205727f, -0.341900f, -0.324310f, -0.383328f, -0.059156f, -0.130426f, -0.402436f, -0.342495f, 
     -0.118618f, 0.108202f, 0.313487f, 0.272703f, 0.291114f, 0.314877f, 0.368077f, 0.554450f, 
     0.366797f, -0.188152f, -0.166707f, 0.218793f, 0.264170f, 0.288678f, 0.176380f, 0.164238f, 
     0.287783f, 0.289348f, 0.171033f, -0.154055f, -0.370240f, -0.144345f, -0.231766f, -0.273177f, 
     -0.245035f, -0.087900f, -0.325621f, -0.074375f, 0.379116f, 0.307273f, 0.285742f, 0.295181f, 
     0.240932f, 0.248993f, 0.250463f, 0.365055f, 0.237463f, -0.152309f, -0.101357f, 0.149499f, 
     0.373256f, 0.402809f, 0.228157f, 0.307346f, 0.183021f, 0.070503f, 0.088567f, -0.143431f, 
     -0.367664f, -0.211418f, -0.593175f, -0.295933f, -0.268854f, 0.183977f, 0.301893f, 0.122728f, 
     0.229196f, 0.133396f, 0.122595f, 0.258789f, 0.290328f, 0.288656f, 0.213263f, 0.234702f, 
     0.120465f, -0.142717f, 0.031804f, 0.276448f, 0.445845f, 0.369076f, 0.111343f, 0.157260f, 
     -0.040039f, -0.041823f, 0.073728f, -0.135407f, -0.667144f, -0.509331f, -0.116864f, -0.211344f, 
     -0.173630f, -0.036620f, -0.208442f, -0.292324f, -0.349860f, -0.142205f, 0.024678f, 0.246956f, 
     0.299579f, 0.183096f, -0.021677f, -0.017148f, 0.002964f, 0.003165f, 0.232618f, 0.454776f, 
     0.368088f, 0.255586f, 0.140895f, 0.090940f, 0.170789f, 0.093102f, -0.041748f, -0.218389f, 
     -0.449332f, -0.507343f, -0.387304f, -0.240885f, -0.007068f, -0.073580f, -0.012280f, -0.543542f, 
     -0.381013f, -0.255460f, -0.157408f, 0.124956f, 0.219801f, 0.078556f, -0.056777f, -0.064029f, 
     -0.002086f, 0.241953f, 0.390820f, 0.379994f, 0.321531f, 0.182128f, 0.123131f, -0.050983f, 
     -0.006296f, 0.073737f, -0.158380f, -0.205520f, -0.462643f, -0.731683f, -0.376547f, -0.304280f, 
     -0.293107f, -0.067289f, -0.064287f, -0.382945f, -0.277119f, -0.203385f, -0.160647f, -0.061597f, 
     0.004656f, -0.019583f, -0.284520f, -0.115746f, 0.098714f, 0.241848f, 0.270699f, 0.210105f, 
     0.173266f, -0.131329f, -0.107252f, -0.089309f, -0.028176f, -0.018019f, -0.373291f, -0.337943f, 
     -0.441857f, -0.816920f, -0.319953f, -0.189272f, -0.002684f, -0.255404f, -0.130688f, -0.070017f, 
     -0.206565f, -0.068455f, -0.173234f, -0.261049f, -0.339320f, -0.438121f, -0.433673f, -0.295526f, 
     -0.293399f, -0.116077f, 0.110193f, 0.076591f, -0.018676f, -0.140408f, -0.119104f, -0.215275f, 
     -0.203482f, -0.127521f, -0.620304f, -0.559391f, -0.555406f, -0.672925f, -0.190819f, -0.020355f, 
     -0.014673f, -0.174960f, 0.070937f, -0.092768f, -0.246166f, -0.404989f, -0.298342f, -0.427408f, 
     -0.489871f, -0.448908f, -0.447094f, -0.238358f, -0.266545f, -0.255155f, -0.015181f, 0.024560f, 
     0.031069f, 0.013994f, -0.074405f, -0.248672f, -0.195511f, -0.151053f, -0.374402f, -0.452112f, 
     -0.404988f, -0.524603f, -0.159914f, -0.150574f, -0.042808f, -0.083944f, -0.089743f, -0.367516f, 
     -0.405940f, -0.220988f, -0.619747f, -0.555430f, -0.186567f, -0.182555f, -0.235042f, -0.125459f, 
     -0.217493f, -0.255865f, -0.175578f, -0.045830f, -0.109759f, -0.033684f, -0.135945f, -0.108493f, 
     -0.054132f, -0.040423f, -0.135585f, -0.106367f, -0.267476f, -0.456158f, -0.204113f, 0.002384f, 
     -0.073859f, -0.037812f, -0.071611f, -0.400754f, -0.571849f, -0.549507f, -0.456687f, -0.385362f, 
     -0.247207f, -0.256942f, -0.140350f, -0.156304f, -0.253383f, -0.142271f, -0.202410f, -0.132849f, 
     -0.139000f, 0.000421f, -0.014786f, 0.132294f, -0.005620f, 0.212971f, 0.026744f, -0.054177f, 
     -0.149767f, -0.285650f, 0.189732f, -0.014886f, 0.017232f, 0.005257f, -0.284693f, -0.310474f, 
     -0.598731f, -0.535844f, -0.074263f, -0.035777f, -0.002416f, -0.025913f, -0.054744f, -0.068571f, 
     -0.133353f, -0.130348f, -0.093024f, -0.079200f, 0.031038f, 0.065318f, 0.136753f, 0.130270f, 
     0.140091f, 0.178119f, -0.185472f, -0.252204f, -0.321433f, -0.029521f, 0.221536f, -0.018950f, 
     -0.007221f, -0.032945f, -0.072289f, -0.223837f, -0.577765f, -0.079186f, 0.028938f, -0.052058f, 
     -0.062549f, 0.007489f, -0.046987f, 0.065046f, -0.135332f, -0.156083f, -0.083489f, -0.139027f, 
     -0.017868f, -0.106309f, -0.022528f, 0.043412f, 0.024645f, 0.030434f, -0.022878f, -0.063398f, 
     -0.479500f, 0.179297f, -0.139915f, -0.002234f, 0.003631f, -0.008508f, -0.175862f, -0.129413f, 
     -0.044818f, -0.246316f, -0.358648f, -0.488251f, -0.583354f, -0.359002f, -0.227262f, -0.343075f, 
     -0.516158f, -0.328409f, -0.262867f, -0.304122f, -0.419772f, -0.469635f, -0.356866f, -0.538141f, 
     -0.383462f, -0.447357f, -0.186476f, -0.084933f, -0.333191f, -0.213274f, -0.121522f, 0.024013f, 
     -0.005784f, -0.013264f, -0.018247f, -0.215348f, -0.056756f, -0.032624f, -0.201539f, -0.833436f, 
     -0.812851f, -1.057606f, -0.744526f, -1.031511f, -0.939520f, -1.154477f, -1.423050f, -1.053721f, 
     -1.122421f, -1.025797f, -1.142013f, -0.987072f, -0.914144f, -0.784310f, -0.730524f, -0.096291f, 
     -0.179597f, -0.034323f, 0.024839f, 0.032702f, 0.030959f, -0.029174f, 0.026873f, -0.000989f, 
     0.003815f, -0.044908f, -0.211125f, -0.244567f, -0.322352f, -0.447554f, -0.526315f, -0.431325f, 
     -0.488625f, -0.731294f, -0.762857f, -0.468551f, -0.578507f, -0.636126f, -0.527241f, -0.319358f, 
     -0.459483f, -0.397164f, -0.358535f, -0.276715f, -0.015797f, 0.020269f, 0.023316f, 0.024996f},
    {0.010329f, 0.018006f, -0.000878f, -0.014292f, -0.029484f, 0.003672f, -0.035194f, 0.026306f, 
     -0.026122f, -0.008654f, 0.031237f, 0.017538f, -0.172662f, -0.166389f, -0.053949f, -0.038611f, 
     -0.028190f, -0.033123f, -0.016934f, -0.012381f, 0.004840f, -0.003407f, -0.029391f, -0.026431f, 
     0.034198f, 0.026082f, -0.006616f, 0.004391f, -0.003734f, -0.010201f, 0.013580f, -0.018601f, 
     0.009795f, 0.017517f, -0.104550f, -0.071421f, -0.070168f, -0.080050f, -0.243187f, -0.181216f, 
     -0.233599f, -0.363008f, -0.336212f, -0.469117f, -0.555826f, -0.487601f, -0.316259f, -0.394908f, 
     -0.332760f, -0.244253f, -0.061925f, -0.102231f, -0.005715f, 0.006111f, -0.026363f, 0.013935f, 
     -0.018831f, -0.028896f, -0.079565f, -0.254386f, -0.311243f, -0.259849f, -0.183540f, -0.265753f, 
     -0.378339f, -0.426866f, -0.443789f, -0.397395f, -0.728598f, -1.021455f, -1.018097f, -0.363556f, 
     -0.071342f, 0.076064f, 0.039298f, 0.001813f, -0.223027f, -0.253507f, -0.261101f, -0.293630f, 
     -0.381067f, -0.255326f, 0.035633f, -0.004119f, -0.028254f, -0.033962f, -0.078999f, 0.066568f, 
     0.225929f, -0.232257f, -0.318270f, -0.590525f, -0.310566f, -0.233337f, -0.102421f, -0.301314f, 
     -0.056322f, -0.156943f, -0.073695f, -0.020110f, -0.035064f, 0.024161f, 0.186154f, 0.163235f, 
     0.190166f, 0.252375f, 0.131235f, -0.067411f, 0.027171f, 0.128308f, 0.193038f, 0.007171f, 
     0.010951f, -0.178933f, -0.300285f, -0.221545f, -0.565932f, -0.606803f, -0.363171f, -0.235768f, 
     -0.444171f, -0.248329f, -0.110837f, 0.024195f, -0.084302f, -0.189137f, -0.059869f, 0.120232f, 
     0.080385f, 0.131899f, 0.199219f, 0.035193f, -0.133283f, 0.128163f, 0.054629f, 0.212852f, 
     0.410066f, 0.334294f, 0.175982f, -0.414887f, -0.000662f, -0.025258f, -0.378041f, -0.255242f, 
     -0.641859f, -0.424206f, -0.348658f, -0.155935f, -0.112370f, -0.003284f, 0.009171f, -0.009783f, 
     -0.043216f, -0.062762f, -0.087064f, -0.129134f, -0.001671f, 0.126461f, 0.125439f, 0.059422f, 
     0.116551f, 0.100615f, 0.099320f, 0.168128f, 0.330200f, 0.526284f, 0.362211f, 0.079123f, 
     0.016583f, -0.191846f, 0.084494f, -0.702071f, -0.437628f, -0.134937f, -0.117974f, -0.065426f, 
     0.010384f, -0.046849f, -0.003444f, 0.001925f, 0.023907f, -0.054955f, 0.058149f, -0.045250f, 
     -0.044725f, -0.000888f, 0.061270f, 0.142514f, 0.113433f, 0.014430f, 0.087260f, 0.196047f, 
     0.520266f, 0.514206f, 0.312765f, 0.166873f, -0.005474f, -0.371198f, -0.152196f, -0.887520f, 
     -0.838344f, -0.239401f, -0.105244f, 0.015605f, 0.142224f, 0.056719f, 0.135119f, 0.141878f, 
     0.035753f, -0.027936f, 0.033789f, -0.132045f, 0.035059f, 0.056361f, 0.037156f, 0.053237f, 
     0.108825f, 0.072602f, 0.142792f, 0.273648f, 0.514559f, 0.721637f, 0.126660f, 0.188297f, 
     -0.198341f, -0.263782f, -0.406709f, -0.914161f, -0.934885f, -0.285659f, -0.133533f, -0.165357f, 
     0.113265f, 0.060721f, 0.044788f, 0.150710f, -0.028784f, -0.100687f, -0.145169f, -0.232147f, 
     -0.122341f, -0.075508f, -0.053201f, 0.054039f, 0.193943f, 0.160559f, 0.131637f, 0.457480f, 
     0.776367f, 0.755835f, 0.278351f, 0.024941f, -0.079749f, -0.206300f, -0.398444f, -0.872918f, 
     -0.581521f, -0.308809f, -0.129148f, -0.042793f, 0.078992f, 0.093115f, 0.087780f, 0.273966f, 
     0.154872f, -0.002874f, -0.211641f, -0.396375f, -0.390177f, -0.222819f, -0.148584f, -0.128910f, 
     -0.020427f, 0.221107f, 0.210547f, 0.442104f, 1.033705f, 0.982048f, 0.445808f, 0.226278f, 
     -0.067926f, -0.179070f, -0.395332f, -0.785801f, -0.244331f, -0.145671f, -0.081574f, 0.126350f, 
     0.275117f, 0.279095f, 0.246831f, 0.244962f, 0.302329f, 0.173425f, 0.012548f, -0.200219f, 
     -0.279453f, -0.388567f, -0.333162f, -0.337595f, -0.219085f, -0.096969f, -0.063773f, 0.474718f, 
     1.137322f, 1.328251f, 0.994475f, 0.049599f, -0.055237f, -0.266744f, -0.320021f, -0.734821f, 
     -0.090142f, -0.034412f, 0.141712f, 0.132587f, 0.163751f, 0.114697f, 0.122597f, 0.141172f, 
     0.255947f, 0.309670f, 0.018107f, -0.199999f, -0.191345f, -0.231816f, -0.214784f, -0.357220f, 
     -0.550611f, -0.542170f, -0.584792f, -0.040480f, 0.600249f, 1.127122f, 0.697618f, 0.088945f, 
     -0.044086f, -0.230159f, -0.309550f, -0.307357f, -0.024341f, 0.047043f, 0.279075f, 0.127482f, 
     -0.018252f, -0.028466f, 0.120544f, 0.191237f, 0.255382f, 0.234835f, -0.073173f, -0.179082f, 
     -0.334699f, -0.349260f, -0.302081f, -0.318295f, -0.415710f, -0.794682f, -1.039722f, -1.116156f, 
     -1.096203f, 0.094113f, 0.496092f, -0.342251f, -0.094093f, -0.238629f, -0.362120f, -0.097651f, 
     0.105536f, 0.170586f, -0.026597f, 0.075812f, -0.058409f, 0.045509f, 0.150270f, 0.248914f, 
     0.302792f, 0.135452f, -0.084557f, -0.319571f, -0.421394f, -0.284951f, -0.174830f, -0.084771f, 
     -0.087523f, -0.243293f, -0.442473f, -0.730588f, -1.034475f, -0.537107f, 0.087263f, -0.291696f, 
     0.231857f, -0.213763f, -0.252710f, -0.065050f, -0.012136f, -0.128103f, -0.097740f, -0.050947f, 
     0.001363f, 0.110567f, 0.220381f, 0.091343f, 0.086079f, 0.003077f, -0.106120f, -0.238500f, 
     -0.309233f, -0.272778f, -0.190786f, -0.160591f, -0.064705f, -0.128746f, 0.013500f, -0.132115f, 
     -0.181715f, -0.714160f, -0.565113f, -0.308249f, 0.194971f, -0.185002f, -0.431976f, -0.102497f, 
     -0.149850f, -0.269184f, -0.172042f, -0.253575f, -0.109848f, 0.083444f, 0.137108f, 0.028501f, 
     0.072112f, -0.069214f, -0.283957f, -0.302486f, -0.220008f, -0.215914f, 0.055537f, -0.081161f, 
     -0.087768f, -0.021882f, -0.086115f, 0.036025f, 0.161715f, -0.408195f, -0.564875f, -0.390345f, 
     -0.192178f, -0.252667f, -0.560620f, 0.002436f, -0.227264f, -0.183994f, -0.198774f, -0.492544f, 
     -0.337989f, -0.316984f, -0.156368f, -0.121347f, -0.035673f, -0.178591f, -0.297401f, -0.157772f, 
     -0.257574f, -0.143241f, -0.079542f, 0.027416f, 0.043548f, -0.037761f, 0.111839f, 0.097336f, 
     0.055805f, -0.397445f, -0.697599f, -0.339251f, -0.024111f, -0.312753f, -0.664267f, 0.147992f, 
     -0.017429f, 0.147180f, 0.184293f, -0.209588f, -0.342114f, -0.378373f, -0.324069f, -0.325362f, 
     -0.448365f, -0.410030f, -0.269592f, -0.082793f, -0.017792f, 0.081076f, 0.107381f, 0.028978f, 
     0.086067f, 0.033191f, -0.010455f, 0.079373f, 0.065180f, -0.617143f, -0.752179f, -0.358843f, 
     -0.226507f, -0.362625f, -0.402951f, 0.025736f, 0.219513f, 0.282776f, 0.392260f, 0.130744f, 
     -0.069503f, -0.227679f, -0.220069f, -0.168438f, -0.167522f, -0.086992f, -0.010191f, 0.035489f, 
     0.040419f, 0.126697f, -0.000482f, 0.010025f, 0.090287f, 0.061325f, 0.064007f, 0.102148f, 
     0.170668f, -0.440358f, -0.575771f, -0.322868f, -0.002114f, -0.319667f, 0.208225f, 0.064989f, 
     0.205647f, 0.117341f, 0.224578f, 0.102189f, 0.203881f, 0.040306f, -0.019543f, 0.010793f, 
     -0.011322f, 0.056978f, -0.017888f, 0.009367f, -0.054049f, -0.014503f, 0.024823f, 0.056863f, 
     0.080213f, 0.074716f, 0.083747f, 0.137140f, 0.214888f, -0.139415f, -0.508819f, -0.226233f, 
     0.008127f, -0.386076f, 0.207051f, 0.093544f, 0.057353f, 0.196212f, 0.095033f, -0.050244f, 
     0.195176f, 0.169466f, 0.012727f, 0.110013f, 0.055197f, 0.028661f, -0.038499f, 0.002959f, 
     0.065830f, 0.097682f, 0.091495f, 0.033908f, 0.002538f, 0.064267f, 0.268223f, 0.138343f, 
     0.018468f, 0.112509f, -0.419480f, 0.124465f, -0.097851f, -0.449395f, -0.442497f, 0.075118f, 
     0.153561f, 0.073307f, 0.036141f, 0.053339f, 0.104725f, 0.081222f, 0.030728f, 0.095832f, 
     0.064224f, 0.091433f, 0.070512f, 0.054548f, 0.035788f, 0.085013f, 0.032691f, -0.001444f, 
     0.149111f, 0.240472f, 0.291926f, 0.140646f, 0.111804f, 0.118267f, 0.022303f, -0.054226f, 
     -0.040469f, -0.252696f, -0.595957f, 0.009527f, 0.207489f, -0.155081f, -0.202289f, -0.067032f, 
     0.008106f, -0.016395f, -0.042293f, 0.077019f, 0.139651f, 0.154052f, 0.150869f, 0.084621f, 
     0.127039f, 0.071751f, 0.091860f, 0.096512f, 0.104345f, 0.054934f, 0.137988f, 0.267322f, 
     0.149728f, 0.098815f, 0.181330f, -0.000050f, 0.030694f, -0.023246f, -0.028515f, 0.157203f, 
     0.223288f, 0.120136f, -0.073664f, -0.166430f, 0.039415f, 0.098562f, 0.178202f, 0.093795f, 
     0.118131f, 0.022390f, 0.068724f, 0.054077f, 0.140109f, 0.045741f, -0.135049f, -0.026425f, 
     0.057139f, -0.067884f, -0.016022f, 0.130311f, 0.174050f, 0.080764f, 0.227094f, 0.020075f, 
     0.032970f, 0.000060f, -0.359011f, 0.232646f, 0.029433f, 0.063209f, -0.061171f, -0.034903f, 
     0.016485f, 0.256052f, 0.138401f, 0.138731f, 0.192429f, 0.250180f, 0.232515f, 0.195619f, 
     0.073748f, 0.131683f, 0.108223f, 0.022534f, 0.033646f, 0.007426f, 0.247351f, 0.156803f, 
     0.173725f, -0.509607f, -0.239441f, 0.003329f, 0.013246f, 0.010682f, -0.159020f, 0.212535f, 
     0.229083f, -0.034560f, -0.004261f, -0.071932f, -0.135382f, 0.107795f, 0.068757f, 0.151098f, 
     0.183802f, 0.235954f, 0.055568f, 0.307130f, 0.268703f, 0.283359f, 0.231358f, 0.147351f, 
     0.054372f, 0.291665f, 0.444457f, 0.503850f, 0.398469f, -0.093189f, -0.016648f, 0.011342f, 
     0.016010f, 0.027019f, -0.012522f, -0.074760f, -0.257802f, -0.378782f, -0.695572f, -0.641596f, 
     -0.610166f, -0.381959f, -0.171405f, 0.158140f, 0.086547f, -0.043124f, -0.223353f, 0.112895f, 
     -0.001990f, -0.179679f, -0.363869f, -0.202243f, 0.086752f, 0.155737f, 0.170298f, -0.066461f, 
     -0.204415f, -0.025782f, -0.033320f, 0.020869f, -0.031625f, -0.034068f, -0.021208f, 0.004042f, 
     -0.008651f, -0.025709f, -0.109119f, -0.309122f, -0.267575f, -0.294153f, 0.110455f, 0.110461f, 
     0.085042f, -0.059517f, -0.664393f, -0.631028f, -0.692880f, -0.649633f, -0.348518f, -0.455580f, 
     -0.393691f, -0.516758f, -0.439638f, -0.300137f, 0.035180f, -0.004649f, 0.018415f, 0.021530f},
    {0.017215f, -0.001227f, -0.002534f, 0.018110f, -0.013357f, -0.028244f, -0.015769f, 0.008434f, 
     -0.029767f, -0.021359f, -0.032523f, 0.021929f, 0.178614f, 0.158653f, -0.136174f, -0.089971f, 
     -0.019460f, -0.035586f, 0.004094f, -0.030757f, 0.009124f, -0.031854f, -0.031671f, 0.010440f, 
     0.010584f, 0.030068f, -0.001742f, -0.005671f, -0.031910f, -0.004439f, 0.030120f, -0.020495f, 
     0.088881f, 0.216297f, 0.341197f, 0.432453f, 0.312237f, 0.417766f, 0.474781f, 0.387089f, 
     0.454628f, 0.441315f, -0.027859f, 0.205025f, -0.027036f, 0.293182f, 0.512736f, 0.388667f, 
     0.434365f, 0.284202f, 0.327893f, 0.252848f, -0.025760f, 0.029436f, -0.005642f, 0.012184f, 
     0.027204f, 0.003132f, 0.099676f, 0.118721f, 0.300870f, 0.326260f, 0.521558f, 0.601077f, 
     0.618841f, 0.350515f, 0.600345f, 0.581379f, 0.462811f, 0.292315f, 0.329038f, 0.256193f, 
     0.204231f, 0.262818f, 0.279544f, 0.309877f, 0.399890f, 0.473565f, 0.522441f, 0.496811f, 
     -0.064440f, -0.129361f, 0.025306f, 0.016477f, 0.006512f, -0.013190f, -0.176300f, 0.237129f, 
     0.147981f, 0.240825f, 0.419436f, 0.313037f, 0.237436f, 0.276146f, 0.247105f, 0.258317f, 
     0.135134f, 0.172356f, 0.189995f, 0.150282f, 0.008208f, 0.018833f, 0.140597f, 0.213856f, 
     0.051890f, 0.170851f, 0.284001f, 0.387447f, 0.227753f, -0.188846f, 0.127239f, -0.022487f, 
     0.030328f, 0.013376f, -0.246095f, -0.105569f, 0.191255f, 0.059133f, 0.003289f, -0.052013f, 
     0.036742f, -0.075555f, 0.039418f, -0.194130f, -0.219493f, -0.099370f, -0.121576f, -0.152309f, 
     0.000013f, 0.062621f, 0.027118f, 0.108725f, 0.175364f, 0.230340f, 0.298400f, 0.288376f, 
     -0.146425f, -0.182017f, -0.062459f, 0.192485f, -0.004717f, -0.035176f, 0.164815f, -0.364660f, 
     0.085492f, -0.276380f, -0.122617f, -0.184251f, 0.028902f, -0.063281f, -0.047967f, -0.361817f, 
     -0.209970f, -0.226693f, -0.104092f, -0.129565f, -0.134938f, -0.011978f, 0.072777f, 0.164275f, 
     0.112690f, 0.121190f, 0.049168f, 0.315266f, 0.132165f, -0.053319f, 0.118412f, 0.246359f, 
     -0.017377f, -0.013795f, -0.192298f, -0.512261f, -0.058385f, -0.233971f, -0.255256f, -0.103756f, 
     -0.072563f, -0.089392f, -0.274419f, -0.219966f, -0.123643f, -0.244092f, -0.141414f, -0.113398f, 
     -0.199222f, -0.133976f, -0.174092f, -0.092681f, -0.085140f, -0.028065f, 0.004367f, 0.133551f, 
     0.121716f, -0.010032f, -0.109675f, 0.094565f, 0.005813f, -0.024889f, -0.218769f, -0.506972f, 
     -0.018943f, -0.122071f, -0.297118f, -0.055404f, -0.119848f, -0.156978f, -0.184764f, -0.110849f, 
     -0.125545f, -0.242558f, -0.142387f, -0.147070f, -0.281510f, -0.219241f, -0.313670f, -0.335253f, 
     -0.216748f, -0.121805f, -0.217915f, -0.214202f, 0.085664f, -0.181349f, -0.012255f, 0.089269f, 
     -0.161721f, -0.108790f, -0.273080f, -0.613629f, 0.009472f, -0.225749f, -0.278498f, -0.200448f, 
     -0.184065f, -0.154215f, -0.175064f, -0.130010f, -0.183897f, -0.215351f, -0.284242f, -0.336762f, 
     -0.387985f, -0.349373f, -0.523867f, -0.498845f, -0.331131f, -0.238477f, -0.348344f, -0.558429f, 
     -0.640709f, -0.862337f, -0.440084f, -0.315069f, -0.037477f, -0.058010f, -0.360031f, -0.547802f, 
     0.070394f, -0.317931f, -0.262939f, -0.058575f, -0.087557f, -0.180742f, -0.199720f, -0.184079f, 
     -0.189712f, -0.279650f, -0.226795f, -0.393430f, -0.470601f, -0.619035f, -0.594046f, -0.418138f, 
     -0.308163f, -0.208014f, -0.359122f, -0.384814f, -0.561224f, -1.083569f, -0.771049f, -0.444199f, 
     0.017671f, -0.085100f, -0.323227f, -0.521840f, -0.131720f, -0.237542f, -0.192469f, -0.048903f, 
     -0.063565f, -0.159751f, -0.070363f, -0.174752f, -0.182339f, -0.064583f, -0.248222f, -0.465479f, 
     -0.475512f, -0.446630f, -0.442728f, -0.383730f, -0.222888f, -0.254908f, -0.369872f, -0.140684f, 
     -0.321436f, -1.040502f, -0.915134f, -0.249654f, -0.042165f, -0.103281f, -0.209105f, -0.493975f, 
     -0.108470f, -0.112555f, -0.090053f, 0.079672f, 0.012610f, 0.089189f, -0.002915f, -0.042787f, 
     0.055248f, 0.076146f, -0.281218f, -0.527389f, -0.286391f, -0.317392f, -0.280225f, -0.206154f, 
     -0.148451f, -0.018661f, 0.011537f, 0.228978f, -0.041911f, -0.658780f, -0.851109f, -0.157105f, 
     -0.003251f, -0.139002f, -0.166128f, -0.485149f, -0.168061f, -0.058559f, 0.094602f, 0.190549f, 
     0.117234f, 0.124427f, 0.028221f, 0.152897f, 0.161391f, 0.060839f, -0.302828f, -0.360500f, 
     -0.116518f, -0.147631f, -0.232833f, -0.308313f, -0.137735f, 0.083201f, 0.327102f, 0.557327f, 
     0.299757f, -0.337009f, -0.861146f, -0.253014f, -0.055299f, -0.184672f, -0.114379f, -0.429983f, 
     -0.178305f, 0.156588f, 0.281618f, 0.016182f, 0.068319f, 0.059431f, 0.167301f, 0.093595f, 
     0.114035f, -0.045453f, -0.240208f, -0.028546f, 0.027575f, -0.188777f, -0.194780f, -0.045781f, 
     -0.061321f, 0.096919f, 0.286823f, 0.577512f, 0.360498f, -0.281066f, -0.863259f, -0.369926f, 
     -0.175282f, -0.006386f, -0.062858f, -0.486218f, -0.709561f, 0.112895f, 0.188159f, 0.025163f, 
     0.107455f, 0.155334f, 0.197826f, 0.294203f, 0.123966f, -0.096545f, -0.116273f, 0.035473f, 
     0.037588f, -0.243972f, -0.199043f, -0.070768f, 0.006603f, 0.097400f, 0.250074f, 0.289321f, 
     0.234775f, -0.016293f, -0.617914f, -0.304854f, -0.207373f, -0.022686f, -0.214137f, -0.643019f, 
     -0.928081f, -0.023880f, 0.117222f, 0.191158f, 0.125244f, 0.164312f, 0.234464f, 0.350266f, 
     0.173938f, 0.016023f, 0.088420f, 0.066067f, -0.058474f, -0.102479f, -0.097333f, -0.018589f, 
     0.085173f, 0.096296f, 0.017662f, 0.108341f, 0.045148f, 0.092749f, -0.720667f, -0.492540f, 
     -0.042193f, 0.003047f, -0.213270f, -0.665149f, -0.578105f, -0.001159f, 0.132943f, 0.203969f, 
     0.221351f, 0.260737f, 0.356458f, 0.482275f, 0.042550f, -0.040054f, 0.094773f, 0.016093f, 
     -0.113793f, -0.174441f, 0.056123f, 0.082260f, 0.003618f, 0.010564f, -0.059211f, -0.029739f, 
     -0.010650f, 0.031257f, -0.823354f, -0.440596f, -0.027709f, -0.127387f, -0.202758f, -0.540380f, 
     -0.747695f, -0.095672f, -0.031486f, 0.133468f, 0.252051f, 0.277057f, 0.426406f, 0.462963f, 
     0.121583f, 0.029834f, 0.077835f, -0.084598f, -0.113355f, 0.011407f, 0.081424f, 0.075775f, 
     -0.017312f, 0.004580f, 0.027025f, 0.021807f, 0.044287f, 0.052659f, -0.731267f, -0.545282f, 
     -0.103517f, -0.143420f, -0.156995f, -0.311678f, -0.551489f, -0.360946f, -0.117084f, 0.052439f, 
     0.126672f, 0.177929f, 0.243199f, 0.289418f, 0.373851f, 0.206457f, 0.007608f, 0.014752f, 
     0.108399f, 0.150538f, 0.163770f, 0.021783f, -0.013646f, 0.015632f, -0.043798f, 0.003140f, 
     -0.075965f, 0.090033f, -0.321730f, -0.403431f, -0.033562f, -0.208769f, -0.255309f, -0.404431f, 
     -0.342165f, -0.366318f, -0.149935f, -0.052618f, -0.039871f, 0.155815f, 0.276733f, 0.424729f, 
     0.446898f, 0.212242f, 0.209572f, 0.202330f, 0.183266f, 0.157418f, 0.089392f, 0.046236f, 
     0.020004f, 0.032503f, 0.048306f, -0.042214f, -0.151832f, -0.279143f, -0.489053f, -0.224977f, 
     0.013544f, -0.194146f, -0.270341f, -0.646455f, -0.360935f, -0.344390f, -0.286696f, -0.044252f, 
     -0.074771f, 0.126460f, 0.259885f, 0.296170f, 0.394302f, 0.293624f, 0.415972f, 0.279563f, 
     0.103112f, 0.091614f, 0.174212f, 0.033304f, 0.127734f, -0.010584f, -0.132025f, -0.049123f, 
     -0.267269f, -0.208044f, -0.154216f, -0.009413f, -0.051178f, -0.065122f, -0.223809f, -0.483954f, 
     -0.606569f, -0.573134f, -0.474024f, -0.107651f, 0.056226f, 0.071937f, 0.182171f, 0.258456f, 
     0.425858f, 0.452461f, 0.431246f, 0.240907f, 0.189449f, 0.245274f, 0.228056f, 0.075918f, 
     0.023275f, -0.159459f, -0.035909f, -0.173743f, -0.322686f, -0.304484f, 0.046667f, -0.010760f, 
     -0.047241f, -0.069659f, -0.038479f, -0.303108f, -0.685421f, -0.765346f, -1.023111f, -0.343262f, 
     -0.079766f, 0.006271f, 0.118529f, 0.054841f, 0.174013f, 0.160369f, 0.054724f, 0.210952f, 
     0.120059f, 0.024916f, -0.030369f, -0.036158f, -0.010967f, -0.006207f, -0.320152f, -0.624760f, 
     -0.676279f, -0.465279f, 0.155246f, -0.000328f, -0.017242f, 0.018793f, -0.074182f, -0.102377f, 
     -0.323443f, -0.605061f, -0.847493f, -0.746586f, -0.418449f, -0.331090f, -0.400861f, -0.341666f, 
     -0.175000f, -0.101843f, -0.044664f, -0.048847f, -0.109611f, -0.158957f, 0.022130f, 0.060959f, 
     0.001581f, -0.147934f, -0.369698f, -0.740158f, -0.600432f, -0.388917f, -0.262343f, -0.021656f, 
     -0.005396f, 0.032539f, -0.054054f, -0.070908f, -0.145652f, -0.363852f, -0.554349f, -0.666968f, 
     -0.862559f, -1.004406f, -1.239609f, -0.928781f, -0.640640f, -0.621062f, -0.603161f, -0.424933f, 
     -0.240704f, -0.305326f, -0.335270f, -0.604360f, -0.494924f, -1.008783f, -0.683899f, -0.545111f, 
     -0.298467f, -0.109320f, -0.035310f, 0.010143f, 0.006001f, 0.010458f, -0.010198f, -0.124719f, 
     -0.179062f, -0.171408f, -0.288174f, -0.289160f, -0.512013f, -0.513294f, -0.459545f, -0.275898f, 
     -0.202110f, -0.810592f, -0.709489f, -0.778381f, -0.770127f, -0.851885f, -0.869526f, -0.838958f, 
     -0.540509f, -0.401316f, -0.281835f, -0.270090f, -0.134864f, -0.053341f, -0.022530f, 0.018973f, 
     -0.035240f, -0.017941f, -0.010196f, -0.042395f, -0.074369f, -0.079104f, -0.118070f, -0.093069f, 
     -0.185170f, -0.213472f, -0.199340f, -0.249444f, -0.303101f, -0.356843f, -0.390471f, -0.362750f, 
     -0.408809f, -0.421293f, -0.473594f, -0.344016f, -0.262038f, -0.318082f, -0.191592f, -0.195534f, 
     -0.060062f, -0.037648f, -0.010969f, -0.003245f, -0.022269f, 0.026059f, 0.004010f, 0.004085f, 
     -0.013344f, -0.040423f, -0.004888f, -0.051625f, -0.003369f, -0.048927f, -0.059755f, -0.024726f, 
     -0.019280f, -0.096787f, -0.160958f, -0.058563f, -0.065240f, -0.047697f, -0.138243f, -0.178785f, 
     -0.148324f, -0.245770f, -0.227294f, -0.103872f, -0.029008f, 0.027699f, 0.013658f, 0.010360f},
    {-0.001765f, 0.026699f, -0.007746f, 0.033527f, 0.006703f, 0.034738f, 0.023695f, 0.008758f, 
     0.019120f, -0.016929f, -0.003145f, 0.020419f, -0.011235f, -0.005416f, -0.026303f, -0.039247f, 
     0.020680f, -0.007928f, -0.000273f, -0.024250f, -0.009758f, -0.012267f, -0.011376f, -0.009033f, 
     0.001320f, 0.019358f, -0.020490f, 0.025438f, -0.028608f, -0.001957f, 0.019900f, -0.028633f, 
     0.016797f, -0.017481f, -0.053479f, -0.238454f, -0.184501f, -0.234223f, -0.282059f, -0.297011f, 
     -0.341212f, -0.271804f, -0.073370f, -0.258165f, -0.225852f, -0.204025f, -0.102963f, -0.150129f, 
     -0.074996f, -0.033266f, -0.103266f, -0.191081f, 0.001959f, -0.025667f, 0.021117f, -0.017022f, 
     -0.014529f, -0.029595f, -0.004354f, -0.224643f, -0.270074f, -0.066580f, -0.079365f, -0.330347f, 
     -0.398611f, -0.450746f, -0.590044f, -0.568275f, -0.554661f, -0.499073f, -0.320226f, -0.309466f, 
     -0.391202f, -0.262570f, -0.113044f, -0.133935f, -0.104977f, -0.137305f, -0.111648f, -0.045637f, 
     -0.052828f, 0.005657f, -0.020564f, 0.014312f, -0.016022f, -0.029136f, -0.001184f, -0.223066f, 
     -0.292073f, -0.252904f, -0.383972f, -0.636695f, -0.535289f, -0.745996f, -0.782136f, -0.747803f, 
     -0.718115f, -0.781012f, -0.589143f, -0.670328f, -0.520117f, -0.532106f, -0.450934f, -0.392967f, 
     -0.434207f, -0.438407f, -0.297892f, -0.069815f, -0.057652f, -0.024187f, 0.005843f, -0.009501f, 
     -0.030823f, 0.016595f, -0.038721f, 0.242055f, -0.220309f, -0.457439f, -0.662616f, -0.852550f, 
     -0.957083f, -0.825646f, -1.035932f, -0.750647f, -0.588089f, -0.558049f, -0.635811f, -0.683026f, 
     -0.929059f, -1.176090f, -1.062782f, -0.905121f, -0.751914f, -0.232733f, -0.468888f, -0.521210f, 
     -0.312493f, -0.216807f, -0.233946f, -0.130289f, 0.025968f, 0.025086f, -0.201377f, -0.074217f, 
     -0.320291f, 0.127256f, 0.091494f, 0.137833f, 0.151067f, 0.122953f, -0.120517f, -0.155805f, 
     -0.155078f, -0.185956f, -0.244016f, -0.322080f, -0.321174f, -0.394717f, -0.423965f, -0.677556f, 
     -0.919503f, -0.733915f, -0.595248f, -0.985953f, -0.679396f, -0.390898f, -0.267572f, -0.116930f, 
     -0.000333f, -0.178024f, 0.308748f, 0.380782f, 0.080165f, 0.201721f, 0.218049f, 0.192491f, 
     0.213652f, 0.145202f, 0.190538f, 0.240145f, 0.108205f, -0.079520f, -0.093304f, -0.017565f, 
     -0.013247f, 0.016668f, -0.064808f, -0.078569f, -0.095489f, 0.008952f, -0.086703f, -0.558495f, 
     -0.631894f, -0.774966f, -0.482170f, -0.181418f, 0.124981f, 0.068516f, 0.405898f, 0.547592f, 
     0.105453f, 0.041216f, 0.191687f, 0.294995f, 0.123747f, 0.206676f, 0.235639f, 0.246093f, 
     0.208840f, 0.050196f, -0.078458f, 0.048486f, 0.148842f, 0.232369f, 0.247646f, 0.147336f, 
     0.130992f, 0.079216f, -0.009326f, -0.203237f, -0.360611f, -0.521283f, -0.560429f, -0.175437f, 
     -0.253849f, 0.430030f, 0.223130f, 0.441146f, 0.184222f, 0.149268f, 0.238306f, 0.347366f, 
     0.239027f, 0.174173f, 0.126537f, 0.216611f, 0.262830f, 0.114941f, 0.168587f, 0.226941f, 
     0.220554f, 0.207179f, 0.238795f, 0.099312f, 0.098533f, -0.070927f, 0.055425f, -0.042652f, 
     -0.385665f, -0.679114f, -0.597104f, -0.244641f, 0.124597f, 0.397004f, 0.177583f, 0.359720f, 
     0.270237f, 0.138279f, 0.154293f, 0.094281f, 0.033407f, 0.080156f, -0.035427f, 0.128787f, 
     0.223856f, 0.125516f, 0.284217f, 0.306341f, 0.286189f, 0.326442f, 0.237928f, 0.204403f, 
     0.063444f, 0.100794f, 0.062519f, -0.179000f, -0.340804f, -0.484551f, -0.092236f, 0.203044f, 
     0.145648f, 0.262241f, 0.500233f, 0.384714f, 0.263162f, 0.176246f, 0.043841f, 0.057085f, 
     -0.060795f, 0.034774f, 0.034277f, -0.046422f, -0.062084f, 0.171918f, 0.313744f, 0.440423f, 
     0.490957f, 0.328872f, 0.274832f, 0.273341f, 0.290703f, 0.267868f, 0.149894f, -0.216070f, 
     -0.585364f, -0.319059f, -0.048251f, 0.173856f, 0.116587f, 0.375927f, 0.633455f, 0.408658f, 
     0.391315f, 0.056774f, -0.016473f, 0.112762f, -0.017917f, 0.081689f, 0.151458f, 0.068280f, 
     -0.031483f, 0.041134f, 0.205082f, 0.373391f, 0.457380f, 0.363878f, 0.368697f, 0.171942f, 
     0.174413f, 0.156777f, 0.146652f, -0.252461f, -0.730832f, -0.864930f, -0.346588f, 0.145498f, 
     0.088303f, 0.409668f, 0.663057f, 0.581815f, 0.340595f, 0.094454f, -0.007069f, 0.198084f, 
     0.252061f, 0.000127f, -0.051582f, -0.085426f, -0.559072f, -0.715398f, -0.239165f, 0.224880f, 
     0.356049f, 0.307697f, 0.235604f, -0.033227f, 0.021530f, 0.027647f, 0.050944f, -0.264688f, 
     -0.524005f, -0.003874f, 0.173731f, 0.196345f, -0.197502f, 0.281374f, 0.583790f, 0.464350f, 
     0.286035f, 0.100555f, 0.121542f, 0.067333f, -0.043107f, -0.109311f, -0.080699f, -0.385870f, 
     -0.923854f, -0.911816f, -0.283329f, 0.056158f, 0.188623f, 0.117051f, 0.096509f, -0.063329f, 
     0.088093f, 0.042764f, -0.053522f, -0.224396f, -0.079090f, -0.004911f, -0.140127f, -0.261389f, 
     -0.179538f, 0.205696f, 0.513394f, 0.295670f, 0.199320f, 0.143014f, -0.040545f, -0.076917f, 
     -0.114662f, -0.182125f, -0.183432f, -0.523547f, -0.857747f, -0.596546f, -0.224501f, -0.143638f, 
     0.074634f, 0.192471f, 0.338904f, 0.399568f, 0.264058f, 0.087959f, 0.151369f, 0.205385f, 
     -0.091675f, -0.449115f, -0.491928f, -0.228828f, 0.100017f, -0.100611f, 0.280658f, 0.173690f, 
     0.011480f, -0.026686f, -0.029190f, -0.146676f, -0.298650f, -0.297280f, -0.292800f, -0.536049f, 
     -0.597722f, -0.399509f, -0.261370f, -0.084251f, -0.050969f, 0.391383f, 0.430567f, 0.341162f, 
     0.351200f, 0.307674f, 0.290723f, 0.129517f, -0.216053f, -0.662537f, -0.436781f, -0.218560f, 
     0.213758f, -0.189281f, -0.120380f, -0.120856f, 0.029617f, -0.120129f, 0.012929f, 0.068766f, 
     -0.103106f, -0.192254f, -0.408705f, -0.630616f, -0.323928f, -0.211550f, -0.196387f, 0.036096f, 
     0.065349f, 0.270271f, 0.164503f, 0.225835f, 0.226687f, 0.145056f, -0.009335f, -0.235607f, 
     -0.362811f, -0.885879f, -0.648011f, -0.287773f, -0.025669f, -0.167264f, -0.188058f, -0.230920f, 
     0.102993f, -0.011233f, -0.171834f, -0.175909f, -0.156028f, -0.236926f, -0.449598f, -0.256474f, 
     -0.087823f, 0.015261f, 0.033596f, 0.079108f, -0.045870f, 0.046539f, 0.092362f, 0.001385f, 
     0.046391f, -0.080941f, -0.076373f, -0.182109f, -0.037566f, 0.059870f, 0.218571f, -0.319588f, 
     0.188199f, -0.042675f, 0.249290f, -0.094125f, 0.029794f, -0.068461f, -0.434102f, -0.398933f, 
     -0.332650f, -0.319734f, -0.422127f, -0.232445f, -0.137534f, 0.043034f, 0.032235f, -0.046167f, 
     -0.116681f, -0.097773f, -0.067870f, -0.103877f, -0.065151f, -0.163250f, -0.272154f, -0.528262f, 
     -0.380571f, -0.191896f, 0.310894f, -0.248588f, -0.098134f, 0.284629f, 0.329669f, -0.255305f, 
     -0.043911f, -0.260853f, -0.412086f, -0.499904f, -0.341916f, -0.301197f, -0.407544f, -0.232364f, 
     -0.066683f, -0.040784f, 0.070518f, -0.122141f, -0.242124f, -0.276273f, -0.322641f, -0.185017f, 
     -0.258899f, -0.397117f, -0.542193f, -0.704633f, -0.239013f, -0.416303f, -0.211849f, -0.151855f, 
     -0.008791f, 0.071518f, -0.138089f, -0.686531f, -0.635046f, -0.484983f, -0.618686f, -0.529523f, 
     -0.237232f, -0.320393f, -0.232008f, -0.234990f, -0.038456f, -0.003350f, -0.002162f, -0.134053f, 
     -0.304830f, -0.348799f, -0.510424f, -0.388566f, -0.589607f, -0.539852f, -0.674070f, -0.619873f, 
     -0.178683f, -0.414878f, -0.196533f, -0.033205f, -0.093247f, -0.315128f, -0.459674f, -0.849351f, 
     -0.532114f, -0.379004f, -0.446086f, -0.408538f, -0.201912f, -0.216827f, -0.192126f, -0.130003f, 
     -0.076533f, -0.088634f, -0.117183f, -0.139214f, -0.166186f, -0.278569f, -0.401105f, -0.405969f, 
     -0.511961f, -0.494479f, -0.690870f, -0.796300f, -0.217871f, -0.143529f, -0.290440f, -0.044121f, 
     -0.113344f, -0.164015f, -0.543343f, -0.678041f, -0.326350f, -0.022354f, -0.106092f, 0.022182f, 
     -0.056009f, -0.099523f, -0.069194f, -0.195748f, -0.075478f, -0.247508f, -0.099290f, -0.021914f, 
     -0.036216f, -0.244016f, -0.331264f, -0.342834f, -0.492093f, -0.517001f, -0.627521f, -0.873439f, 
     -0.354990f, -0.188048f, -0.364147f, 0.003395f, 0.021719f, -0.028220f, -0.544545f, -0.582901f, 
     0.090896f, 0.132903f, 0.261883f, 0.283215f, -0.204291f, -0.155920f, -0.140841f, -0.226242f, 
     -0.202908f, -0.188170f, -0.045269f, 0.020423f, -0.104298f, -0.173760f, -0.329698f, -0.413457f, 
     -0.580977f, -0.671417f, -0.549723f, -0.889638f, -0.368500f, -0.375035f, -0.278134f, -0.015516f, 
     0.015856f, 0.007843f, -0.103530f, -0.002671f, 0.256477f, 0.526570f, 0.415667f, 0.273296f, 
     0.128253f, -0.014196f, 0.033399f, 0.000412f, -0.017493f, 0.070420f, 0.044084f, 0.050593f, 
     -0.048357f, -0.027361f, -0.227328f, -0.281594f, -0.315215f, -0.280345f, -0.427486f, -0.965385f, 
     -0.501177f, -0.318306f, -0.045427f, 0.028614f, 0.000229f, 0.007364f, -0.388734f, 0.301297f, 
     0.346049f, 0.195727f, 0.063469f, 0.175718f, 0.311144f, 0.288217f, 0.160004f, 0.316286f, 
     0.256499f, 0.200442f, 0.169081f, 0.137140f, 0.151851f, 0.131790f, 0.081760f, 0.040484f, 
     -0.143689f, -0.030973f, 0.013282f, -0.315584f, -0.040129f, -0.213230f, 0.021282f, -0.009197f, 
     0.010619f, -0.029651f, -0.032839f, -0.186582f, -0.404033f, -0.264942f, -0.221944f, 0.079060f, 
     0.204191f, 0.233780f, 0.219969f, 0.155878f, 0.054645f, 0.316693f, 0.301189f, 0.393480f, 
     0.308745f, 0.351927f, 0.430376f, 0.462224f, -0.013708f, 0.121824f, 0.240976f, -0.068998f, 
     -0.246121f, 0.202243f, -0.019463f, -0.035518f, -0.021951f, -0.007192f, 0.031103f, -0.019703f, 
     0.059358f, 0.181403f, 0.104938f, 0.106829f, 0.148466f, 0.086322f, 0.382855f, 0.139816f, 
     0.099482f, 0.835556f, 0.426913f, 0.335962f, 0.375099f, 0.676160f, 0.325278f, 0.471209f, 
     0.074166f, 0.326314f, 0.307257f, 0.334619f, 0.031431f, -0.012941f, -0.022000f, -0.024718f},
    {0.002413f, 0.035226f, -0.015450f, 0.031283f, 0.001016f, -0.031644f, 0.009675f, 0.024055f, 
     -0.032353f, 0.015323f, 0.030646f, 0.020070f, -0.092676f, -0.101313f, -0.039716f, 0.003968f, 
     -0.025403f, -0.016337f, 0.008086f, -0.017586f, -0.022815f, -0.021254f, -0.024461f, -0.028045f, 
     0.011189f, 0.032934f, -0.029966f, -0.020895f, 0.011750f, 0.031505f, 0.015883f, -0.013692f, 
     0.002624f, -0.016379f, -0.057266f, -0.147363f, -0.060253f, -0.109959f, -0.317687f, -0.316939f, 
     -0.220531f, -0.314523f, -0.278789f, -0.343650f, -0.460392f, -0.426578f, -0.370493f, -0.336700f, 
     -0.286567f, -0.164452f, -0.131060f, -0.179842f, 0.015601f, 0.015957f, 0.016094f, 0.034570f, 
     0.012316f, -0.014722f, -0.103624f, -0.157136f, -0.250912f, -0.273506f, -0.176675f, -0.362674f, 
     -0.464599f, -0.639828f, -0.894191f, -0.870077f, -1.232760f, -1.238272f, -1.342930f, -1.264838f, 
     -1.455387f, -0.588568f, -0.113892f, -0.885730f, -0.817868f, -0.697868f, -0.420222f, -0.496283f, 
     -0.421357f, -0.270991f, -0.012780f, -0.020743f, 0.033851f, 0.008409f, -0.190246f, -0.266404f, 
     -0.238108f, -0.482864f, -0.488894f, -0.597680f, -0.337537f, -0.289126f, -0.267109f, -0.317512f, 
     -0.356125f, -0.224946f, -0.334447f, -0.212356f, -0.235215f, -0.206588f, -0.021636f, -0.312242f, 
     -0.308631f, -0.023797f, 0.107530f, 0.178943f, -0.065037f, -0.018638f, -0.270787f, -0.015288f, 
     -0.031572f, -0.131383f, 0.059299f, -0.333099f, -0.525148f, -0.735405f, -0.456662f, -0.192090f, 
     0.029969f, 0.094730f, -0.010313f, 0.030347f, 0.128103f, 0.103051f, 0.222447f, 0.158095f, 
     0.188419f, 0.053399f, 0.032056f, 0.010359f, 0.099999f, 0.029518f, -0.067607f, -0.171632f, 
     0.168390f, 0.210837f, 0.186528f, 0.018836f, -0.023637f, 0.014035f, -0.373416f, -0.387124f, 
     -0.622153f, -0.657472f, -0.199444f, -0.075883f, -0.085235f, -0.003177f, -0.133134f, 0.062520f, 
     0.178600f, 0.142572f, 0.188861f, 0.130402f, 0.142505f, 0.198611f, -0.012555f, 0.076908f, 
     0.132446f, 0.040624f, -0.139881f, -0.243968f, -0.099823f, 0.290089f, -0.041895f, -0.151292f, 
     -0.013214f, -0.214550f, -0.512613f, -0.505551f, -0.458576f, -0.254401f, -0.170561f, -0.100024f, 
     -0.038962f, -0.085028f, -0.087600f, 0.024704f, 0.107920f, 0.054647f, 0.017774f, 0.172296f, 
     0.108181f, 0.108016f, -0.036749f, 0.152986f, 0.063910f, 0.005781f, -0.074816f, 0.076259f, 
     -0.042383f, 0.317565f, -0.007270f, -0.146496f, -0.024873f, -0.426162f, -0.531380f, -0.461983f, 
     -0.092261f, -0.119858f, -0.116926f, -0.011049f, 0.101682f, -0.002842f, 0.048974f, -0.098579f, 
     -0.049313f, -0.075877f, -0.122695f, 0.093284f, 0.012785f, -0.049739f, 0.031032f, 0.057109f, 
     0.042962f, 0.127134f, 0.017955f, 0.204263f, 0.119643f, -0.005601f, 0.032176f, -0.079090f, 
     -0.210109f, -0.379554f, -0.573861f, -0.013188f, -0.027109f, -0.036416f, 0.149562f, 0.106070f, 
     0.032212f, 0.110120f, 0.044277f, 0.012567f, 0.092045f, 0.086445f, -0.138293f, -0.084317f, 
     0.065826f, -0.026114f, 0.054434f, 0.089617f, 0.006316f, 0.077080f, 0.113784f, 0.134532f, 
     0.257867f, 0.104497f, 0.311971f, 0.337870f, -0.063884f, -0.365669f, -0.480106f, -0.149879f, 
     -0.089459f, 0.018116f, 0.116023f, 0.079422f, 0.125852f, 0.192406f, 0.070637f, 0.117739f, 
     0.032138f, 0.030056f, -0.201739f, -0.396080f, -0.160684f, -0.021846f, -0.034332f, 0.086766f, 
     0.086819f, 0.102131f, 0.146964f, 0.119603f, -0.008192f, 0.021525f, 0.346955f, -0.202501f, 
     -0.052675f, -0.347591f, -0.407876f, -0.441304f, 0.151059f, 0.008620f, 0.120795f, 0.144874f, 
     0.149289f, 0.231589f, 0.273984f, 0.161109f, 0.194528f, 0.017679f, -0.097624f, -0.297383f, 
     -0.298397f, -0.178644f, 0.029679f, 0.120367f, 0.071766f, 0.081329f, 0.099435f, 0.123469f, 
     -0.229564f, -0.408604f, -0.075098f, 0.081630f, 0.000682f, -0.412161f, -0.584342f, -0.218453f, 
     0.070560f, 0.117547f, 0.091869f, 0.283980f, 0.233213f, 0.238646f, 0.157161f, 0.102002f, 
     0.197280f, 0.272127f, 0.261068f, -0.111180f, -0.161357f, -0.201285f, -0.102475f, -0.000465f, 
     0.023669f, 0.041224f, 0.237660f, 0.230741f, 0.174196f, -0.200623f, 0.297614f, 0.027734f, 
     -0.054503f, -0.300702f, -0.541817f, 0.087680f, 0.013843f, 0.232748f, 0.057612f, 0.123585f, 
     -0.023781f, 0.086717f, -0.101139f, -0.082845f, 0.085163f, 0.305691f, 0.154042f, 0.024793f, 
     0.004876f, -0.040933f, -0.091445f, 0.096051f, 0.174997f, 0.291796f, 0.294179f, 0.519082f, 
     0.556366f, 0.057203f, 0.022225f, -0.366747f, -0.180119f, -0.148876f, -0.390135f, 0.005869f, 
     -0.170992f, 0.059092f, -0.012502f, -0.060482f, -0.113566f, -0.048392f, -0.201401f, 0.040656f, 
     0.189869f, 0.276190f, 0.035848f, 0.164914f, 0.097065f, -0.131963f, -0.050719f, 0.028853f, 
     0.138376f, -0.057223f, 0.035377f, 0.111352f, 0.098538f, -0.013415f, -0.267000f, -0.325222f, 
     -0.179498f, -0.213102f, -0.277586f, -0.257945f, -0.472468f, -0.115070f, -0.226407f, -0.423578f, 
     -0.296074f, -0.256969f, -0.079967f, 0.147280f, 0.250413f, 0.267424f, 0.180215f, 0.090433f, 
     -0.019377f, -0.052232f, -0.087493f, -0.064003f, -0.238439f, -0.212182f, -0.382035f, -0.429524f, 
     -0.305377f, 0.077790f, -0.463208f, -0.290878f, -0.243050f, -0.204914f, -0.360146f, -0.250400f, 
     -0.544920f, -0.420937f, -0.323382f, -0.251270f, -0.253785f, -0.088494f, -0.095949f, -0.014648f, 
     0.195385f, 0.283172f, 0.208030f, 0.059513f, -0.078623f, -0.124135f, -0.096426f, -0.148750f, 
     -0.312368f, -0.330298f, -0.235683f, -0.354059f, -0.417540f, -0.082958f, -0.674374f, -0.370232f, 
     -0.196214f, -0.202445f, -0.455992f, -0.063176f, -0.494113f, -0.418901f, -0.204536f, -0.093225f, 
     -0.008804f, -0.001828f, 0.042375f, 0.042334f, 0.231706f, 0.160047f, 0.033781f, 0.028057f, 
     0.018460f, -0.112017f, -0.264996f, -0.318293f, -0.325547f, -0.384327f, -0.342044f, -0.099086f, 
     -0.255856f, -0.440363f, -0.739970f, -0.248525f, -0.001439f, -0.351588f, -0.345994f, -0.324461f, 
     -0.306240f, -0.317982f, -0.196753f, 0.049652f, 0.113265f, 0.173290f, 0.079496f, 0.211668f, 
     0.297422f, 0.150268f, -0.021475f, -0.150395f, 0.015034f, -0.120895f, -0.269268f, -0.160163f, 
     -0.161027f, -0.179361f, -0.161282f, -0.042089f, 0.031104f, -1.036631f, -0.651451f, -0.366905f, 
     -0.210620f, -0.381326f, -0.391482f, -0.979728f, -0.381248f, -0.176128f, -0.123353f, -0.050814f, 
     0.089344f, 0.222921f, 0.203614f, 0.197250f, 0.136298f, -0.042384f, -0.152311f, -0.061469f, 
     -0.124436f, -0.169064f, -0.080547f, -0.081877f, -0.030470f, -0.180460f, -0.038231f, 0.028915f, 
     -0.102253f, -0.961321f, -0.527590f, -0.351601f, -0.221953f, -0.343826f, -0.569338f, -0.640668f, 
     -0.331351f, 0.073151f, -0.050287f, -0.110177f, -0.030377f, 0.096183f, 0.094327f, -0.066957f, 
     -0.029171f, -0.136881f, -0.196802f, -0.108251f, -0.072602f, -0.031193f, 0.029753f, 0.026480f, 
     0.015752f, -0.087897f, 0.138605f, 0.172667f, -0.138783f, -0.917105f, -0.530411f, -0.280885f, 
     -0.015990f, -0.294049f, -0.613818f, -0.634372f, -0.275583f, -0.058299f, 0.004888f, 0.165358f, 
     0.011553f, -0.038058f, 0.024404f, -0.168929f, -0.038167f, -0.031980f, -0.128100f, -0.002325f, 
     -0.154126f, -0.046903f, -0.024551f, -0.010831f, 0.094711f, 0.139516f, 0.116373f, 0.086597f, 
     -0.203814f, -0.832398f, -0.536171f, -0.208436f, -0.170473f, -0.318808f, -0.515759f, -0.564284f, 
     -0.155695f, -0.082811f, 0.114524f, 0.148098f, 0.000488f, 0.050550f, -0.068733f, -0.064214f, 
     -0.080188f, 0.040972f, -0.004946f, -0.045266f, -0.123841f, -0.002164f, -0.021168f, -0.026919f, 
     0.026475f, 0.023447f, 0.102612f, -0.034064f, -0.476406f, -0.540480f, -0.525900f, -0.038394f, 
     -0.184468f, -0.231023f, -0.534960f, -0.180859f, -0.160743f, -0.161383f, 0.018700f, 0.065660f, 
     -0.054176f, -0.102720f, -0.012063f, 0.040167f, 0.099258f, 0.156166f, 0.149740f, 0.047004f, 
     -0.011691f, -0.000770f, -0.017502f, -0.042213f, -0.087379f, 0.058463f, 0.001729f, -0.024388f, 
     -0.307743f, -0.391954f, -0.379835f, -0.053081f, 0.007131f, -0.033915f, -0.530070f, -0.240231f, 
     -0.185402f, -0.402085f, -0.339164f, -0.178887f, 0.085195f, -0.018424f, -0.008740f, 0.052396f, 
     0.174349f, 0.257980f, 0.206739f, 0.169760f, 0.211149f, 0.099725f, 0.081736f, 0.077645f, 
     0.053128f, 0.031661f, -0.020895f, 0.218494f, -0.304009f, -0.341521f, -0.369457f, 0.005021f, 
     0.012646f, -0.004591f, -0.212060f, -0.320175f, -0.732446f, -0.637558f, -0.468661f, -0.251153f, 
     0.016574f, 0.030598f, 0.017771f, 0.163611f, 0.205151f, 0.115923f, 0.177395f, 0.194231f, 
     0.300115f, -0.076653f, 0.205019f, 0.351750f, 0.144983f, -0.167280f, -0.225045f, -0.164146f, 
     -0.546226f, -0.562323f, -0.339974f, 0.005488f, -0.027474f, 0.030182f, -0.233210f, -0.363875f, 
     -0.723596f, -0.818446f, -0.336501f, -0.356932f, -0.402119f, -0.347938f, -0.079936f, -0.088553f, 
     -0.212555f, -0.187623f, 0.025049f, 0.143830f, 0.124794f, 0.114518f, 0.033825f, 0.076952f, 
     -0.010663f, -0.394134f, -0.849952f, -0.320593f, -0.484159f, -0.283102f, -0.253185f, -0.020498f, 
     -0.024024f, 0.001901f, 0.001938f, -0.161357f, -0.408907f, -0.454228f, -0.686161f, -0.200075f, 
     -0.200697f, -0.406157f, -0.521094f, -0.358238f, -0.399919f, -0.446739f, -0.546389f, -1.279684f, 
     -1.211323f, -0.537031f, -0.466997f, -0.988234f, -0.760885f, -0.580117f, -0.253664f, 0.063889f, 
     -0.168004f, -0.087981f, 0.016368f, -0.002644f, 0.004456f, 0.001879f, -0.013668f, 0.031350f, 
     -0.047882f, 0.002026f, -0.057539f, -0.396823f, -0.275801f, -0.257428f, -0.344799f, -0.540552f, 
     -0.395454f, -0.356119f, -0.581751f, -0.356499f, -0.443815f, -0.459698f, -0.417116f, -0.476880f, 
     -0.354564f, -0.551287f, -0.313354f, -0.248432f, -0.031498f, 0.024434f, 0.025905f, -0.028995f},
    {-0.018646f, 0.019153f, 0.002545f, -0.023952f, -0.015593f, 0.006628f, 0.018451f, -0.027383f, 
     0.026562f, 0.012426f, 0.003310f, 0.012337f, -0.137080f, -0.122023f, -0.015007f, -0.042051f, 
     -0.006939f, 0.020531f, 0.026711f, 0.008721f, -0.008210f, -0.018377f, 0.025656f, -0.026700f, 
     0.007549f, 0.017172f, 0.011879f, -0.013310f, -0.023832f, 0.007374f, -0.005226f, -0.001619f, 
     -0.054857f, -0.019931f, -0.149947f, -0.144056f, -0.112257f, -0.142391f, -0.289754f, -0.471988f, 
     -0.416660f, -0.406581f, -0.268320f, -0.310301f, -0.281930f, -0.324076f, -0.315621f, -0.289522f, 
     -0.263094f, -0.168607f, -0.231435f, -0.185855f, -0.005387f, 0.012768f, 0.035600f, -0.003469f, 
     -0.035256f, 0.003793f, 0.008046f, -0.237264f, -0.231692f, -0.049766f, -0.084926f, -0.330683f, 
     -0.252220f, -0.336368f, -0.577012f, -0.737802f, -0.773258f, -0.815032f, -0.707329f, -0.634206f, 
     -0.676454f, -0.609548f, -0.584769f, -0.449102f, -0.294745f, -0.266991f, -0.303072f, -0.223668f, 
     -0.023735f, -0.059276f, -0.019247f, -0.033385f, -0.025262f, -0.030681f, -0.043496f, -0.293769f, 
     -0.223335f, -0.245025f, -0.294343f, -0.415777f, -0.488553f, -0.596575f, -0.908528f, -1.002314f, 
     -1.237955f, -1.255096f, -1.430470f, -1.452764f, -1.260897f, -0.949232f, -0.252727f, -0.634632f, 
     -0.687470f, -0.617887f, -0.409081f, -0.235005f, -0.094278f, -0.068752f, -0.029132f, 0.021129f, 
     0.007211f, -0.035385f, -0.023336f, -0.192473f, -0.204101f, -0.270952f, -0.413652f, -0.684247f, 
     -0.789137f, -1.110526f, -0.628229f, -0.477814f, -0.438975f, -0.384090f, -0.397037f, -0.478237f, 
     -0.629547f, -0.567446f, -0.524853f, -0.701954f, -0.562653f, -1.416312f, -1.057485f, -0.766434f, 
     -0.411268f, -0.277288f, -0.247661f, -0.171232f, -0.018512f, 0.021982f, -0.156718f, -0.282542f, 
     -0.388648f, -0.632030f, -1.109439f, -0.604228f, -0.389949f, -0.388948f, -0.192938f, 0.122695f, 
     0.045540f, 0.053768f, -0.148708f, -0.168675f, -0.383189f, -0.342903f, -0.305628f, -0.254347f, 
     -0.260209f, -0.381331f, -0.725287f, -1.462625f, -1.193986f, -0.667534f, -0.282963f, -0.040687f, 
     -0.001457f, -0.214782f, -0.335631f, -0.365260f, -0.652609f, -0.942313f, -0.510324f, -0.403200f, 
     -0.204220f, -0.014860f, -0.007320f, 0.094369f, 0.105294f, 0.270585f, 0.282178f, 0.235826f, 
     0.253220f, 0.257343f, 0.226970f, 0.048404f, 0.014910f, -0.115424f, -0.298036f, -0.521126f, 
     -0.620509f, -0.424592f, -0.505514f, -0.209720f, 0.003290f, -0.369571f, -0.485337f, -0.605106f, 
     -0.917074f, -0.752661f, -0.328723f, -0.342299f, -0.118858f, -0.059811f, -0.056241f, 0.026670f, 
     0.201626f, 0.306711f, 0.403639f, 0.449260f, 0.401514f, 0.226028f, 0.082459f, 0.079387f, 
     0.028067f, 0.008252f, -0.229173f, -0.363327f, -0.511346f, -0.514079f, -0.764845f, -0.375269f, 
     -0.232802f, -0.379381f, -0.654604f, -0.741769f, -0.506791f, -0.295411f, -0.153491f, -0.293592f, 
     0.041982f, -0.112862f, -0.062817f, -0.082014f, -0.135347f, 0.074307f, 0.252729f, 0.184234f, 
     0.094581f, -0.007792f, 0.022329f, -0.062597f, -0.115565f, 0.038482f, -0.102869f, -0.372461f, 
     -0.396345f, -0.468438f, -0.818140f, -0.256664f, -0.173541f, -0.280854f, -0.607083f, -0.404011f, 
     -0.455308f, -0.114528f, 0.095318f, -0.053437f, -0.052296f, -0.018898f, 0.046396f, 0.008827f, 
     -0.001771f, 0.029295f, 0.074688f, 0.101979f, -0.072353f, -0.071281f, 0.015488f, -0.053125f, 
     -0.048214f, -0.184160f, -0.173714f, -0.398534f, -0.481820f, -0.772386f, -0.848174f, -0.308155f, 
     -0.209335f, -0.265485f, -0.759534f, -0.377837f, -0.248608f, 0.069650f, 0.146081f, 0.036210f, 
     0.128778f, 0.066999f, 0.133136f, 0.144604f, 0.104916f, -0.168585f, -0.063258f, -0.122510f, 
     -0.047900f, -0.012741f, 0.034955f, 0.003441f, 0.013470f, -0.049735f, -0.117672f, -0.235263f, 
     -0.609576f, -0.504570f, -0.780551f, -0.338640f, -0.179151f, -0.445338f, -0.694303f, -0.378611f, 
     -0.119464f, 0.174958f, 0.196072f, 0.167364f, 0.299443f, 0.186900f, 0.203011f, 0.235052f, 
     0.033540f, -0.077147f, -0.073782f, 0.063517f, 0.194576f, 0.287071f, 0.201027f, 0.169431f, 
     0.376743f, 0.235477f, 0.137198f, -0.126529f, -0.550311f, -0.585557f, -0.409747f, -0.227399f, 
     -0.128379f, -0.528501f, -0.583201f, -0.220787f, 0.207850f, 0.304945f, 0.311450f, 0.156782f, 
     0.183289f, 0.243315f, 0.198014f, 0.099566f, -0.233902f, -0.011779f, 0.135869f, 0.210512f, 
     0.235981f, 0.336043f, 0.264720f, 0.367133f, 0.317465f, 0.355765f, 0.264032f, 0.285700f, 
     -0.722073f, -1.298008f, -0.668343f, -0.340478f, -0.152314f, -0.323980f, -0.531564f, -0.071952f, 
     0.401156f, 0.280958f, 0.134702f, 0.188015f, 0.162008f, 0.061513f, 0.084588f, -0.101200f, 
     -0.197258f, 0.032287f, 0.160565f, 0.235770f, 0.362373f, 0.290704f, 0.244843f, 0.327848f, 
     0.267102f, 0.290664f, 0.134927f, -0.217547f, -0.844209f, -0.881035f, -0.532521f, -0.279159f, 
     -0.213441f, -0.261016f, -0.489599f, 0.061549f, 0.278989f, 0.088639f, 0.150076f, 0.114786f, 
     0.003912f, -0.021683f, -0.032425f, -0.047509f, -0.115331f, 0.026030f, 0.013667f, 0.169508f, 
     0.343859f, 0.270596f, 0.129854f, 0.096576f, 0.177599f, 0.141512f, -0.042311f, -0.498870f, 
     -1.152374f, -0.717979f, -0.376593f, -0.235111f, -0.253862f, -0.141395f, -0.612468f, -0.031596f, 
     0.098881f, 0.054356f, 0.025736f, 0.017423f, 0.027218f, -0.071459f, -0.000225f, 0.010995f, 
     -0.087461f, -0.149775f, -0.181040f, 0.104104f, 0.287317f, 0.220572f, 0.078705f, 0.025417f, 
     0.023872f, -0.058825f, -0.173026f, -0.449300f, -1.096974f, -0.765199f, -0.310915f, -0.261742f, 
     -0.135080f, -0.112277f, -0.574489f, -0.119902f, 0.112274f, -0.001869f, -0.127528f, -0.023955f, 
     0.047236f, -0.100941f, 0.043836f, 0.054649f, -0.083299f, -0.236320f, -0.134322f, 0.039094f, 
     0.187576f, 0.158257f, 0.036093f, -0.129235f, -0.128927f, -0.252017f, -0.143788f, -0.509705f, 
     -0.965238f, -0.918718f, -0.490622f, -0.369732f, -0.018606f, -0.250240f, -0.436976f, -0.269127f, 
     -0.338036f, -0.226012f, -0.173592f, -0.006066f, 0.048273f, 0.006098f, 0.053621f, 0.040521f, 
     -0.045854f, -0.069759f, -0.053251f, 0.140775f, 0.053318f, 0.042523f, -0.038085f, -0.121344f, 
     -0.137947f, -0.216831f, -0.355970f, -0.612550f, -0.835618f, -0.716368f, -0.419986f, -0.304010f, 
     0.108915f, -0.228527f, -0.388142f, -0.539717f, -0.493584f, -0.385230f, -0.101042f, -0.087500f, 
     -0.138828f, -0.035000f, 0.134397f, 0.040543f, -0.255058f, -0.198743f, 0.061145f, 0.088778f, 
     -0.044174f, -0.072581f, -0.118273f, -0.077085f, -0.046673f, -0.238315f, -0.376640f, -0.604959f, 
     -0.782349f, -0.591243f, -0.386474f, -0.334990f, -0.044472f, -0.316143f, -0.715836f, -0.468460f, 
     -0.542829f, -0.344535f, -0.142417f, -0.097734f, -0.182761f, -0.317606f, -0.260924f, -0.336829f, 
     -0.265087f, -0.180517f, -0.151466f, -0.168723f, -0.130488f, -0.180670f, -0.143474f, -0.038235f, 
     -0.057996f, -0.294066f, -0.395675f, -0.339071f, -0.346414f, -0.346588f, -0.226392f, -0.200084f, 
     -0.028790f, -0.236700f, -0.519911f, -0.651228f, -0.235055f, -0.019942f, -0.196886f, -0.327602f, 
     -0.283118f, -0.467820f, -0.495227f, -0.527827f, -0.487038f, -0.221366f, -0.236544f, -0.245134f, 
     -0.129980f, -0.183605f, -0.263916f, -0.099393f, -0.144404f, -0.362187f, -0.336954f, -0.213865f, 
     0.104568f, 0.184817f, -0.285618f, 0.008148f, -0.058519f, -0.263277f, -0.444243f, -0.531801f, 
     -0.236423f, -0.043211f, -0.112358f, -0.228625f, -0.176615f, -0.166741f, -0.213511f, -0.325657f, 
     -0.270040f, -0.215840f, -0.236149f, -0.209053f, -0.139542f, -0.261142f, -0.239252f, -0.245573f, 
     -0.204651f, -0.199355f, -0.298228f, -0.126385f, 0.224344f, -0.049377f, -0.308550f, -0.025193f, 
     -0.111066f, -0.101976f, -0.513624f, -0.106197f, -0.116746f, -0.378054f, -0.249933f, -0.210219f, 
     -0.025098f, -0.066100f, -0.017728f, -0.037743f, -0.050428f, -0.119827f, -0.053243f, -0.193927f, 
     -0.155235f, -0.182480f, -0.247158f, -0.352217f, -0.163913f, -0.091181f, -0.020584f, 0.194790f, 
     0.243726f, -0.004587f, -0.432868f, -0.014683f, 0.023149f, -0.034782f, -0.447043f, -0.135181f, 
     -0.413566f, -0.300107f, -0.285954f, -0.148428f, 0.009905f, -0.202233f, -0.080153f, -0.085784f, 
     -0.125987f, -0.152582f, -0.068831f, -0.196484f, -0.123355f, -0.118861f, -0.167151f, -0.111932f, 
     0.024695f, 0.107830f, 0.332334f, 0.245158f, 0.225259f, -0.169627f, -0.392560f, -0.008354f, 
     0.031692f, -0.018513f, -0.330119f, -0.562083f, -0.079271f, 0.098100f, -0.004811f, 0.107277f, 
     0.003070f, -0.100686f, -0.005215f, -0.090462f, -0.139748f, -0.231082f, -0.285412f, -0.079169f, 
     -0.050993f, 0.020974f, 0.027550f, 0.053512f, 0.266326f, 0.215849f, 0.339442f, 0.290061f, 
     -0.154469f, -0.304104f, -0.220211f, 0.021114f, -0.025252f, 0.006482f, 0.218738f, -0.596837f, 
     0.020580f, 0.406424f, 0.252653f, 0.224364f, 0.208926f, 0.113865f, 0.186322f, 0.075790f, 
     0.093970f, 0.082636f, 0.172520f, 0.075805f, 0.155834f, 0.215545f, 0.232438f, 0.286068f, 
     0.494608f, 0.402140f, 0.116756f, 0.059105f, -0.194329f, -0.196034f, -0.250642f, -0.014339f, 
     -0.024228f, -0.008898f, -0.000021f, 0.183788f, 0.445487f, 0.469213f, 0.566859f, 0.553046f, 
     0.425342f, 0.471823f, 0.421426f, 0.378339f, 0.460284f, 0.419647f, 0.597358f, 0.277874f, 
     0.364471f, 0.321947f, 0.361241f, 0.202126f, 0.364744f, 0.261144f, -0.046188f, 0.101733f, 
     0.214554f, -0.187926f, 0.032733f, 0.009955f, -0.032631f, 0.021243f, -0.000569f, -0.033754f, 
     -0.208036f, -0.327577f, 0.057804f, 0.109979f, 0.107469f, 0.101973f, -0.043139f, -0.077009f, 
     0.037819f, -0.682791f, 0.026705f, -0.088947f, -0.238279f, -0.519584f, -0.107106f, -0.195058f, 
     0.004804f, -0.161686f, -0.122860f, -0.423282f, -0.009812f, -0.035511f, -0.034798f, 0.019409f},
};

// Model biases (NUM_CLASSES)
const float fc1_bias[NUM_CLASSES] = {
    -0.420275f, 0.554086f, 0.118046f, -0.344879f, 0.139211f, 
    1.144157f, -0.129731f, 0.619548f, -1.272580f, -0.260347f
};

#endif // MNIST_WEIGHTS_H
